-0.0720552635851609,-0.0979461847179242,0.14996564320652983,-0.18961339504733854,0.10479868919075105,0.03608673180655671,0.15900525269507754,0.06034164474381713,0.09733034070865143,0.10010735851768107,0.08664424740451919,-0.3261251368572413,-0.16485216923708257,-0.016421059825003678,0.04162153434360481,-0.043223390033195044,0.16423574747812308,-0.25727482956374115,0.024465861993372397,0.0435308360680676,0.4769314810909887,-0.08519294659832476,0.06680957512893883,0.091087109697771,0.1045983020695831,0.022909701207940936,0.1519188785260641,0.25522467340460125,0.03519201668569747,0.07441126677721868,0.020394613346204654,0.06269001243080671,0.03632076479921701,-0.15709956918666002,0.018023638460452886,-0.10890758858290936,-0.040055152371475396,-0.3108048152409445,0.09680664814470089,-0.0403691255118261,0.34090907899651574,0.04909132123339438,0.1923568741545293,-0.06346557362537464,0.1146004636903751,-0.009762156871505017,-0.12654149200390347,-0.09794112464160579,0.09909987593619038,-0.04968520373727704,0.06588784540309711,0.020440070020544123,0.16939573785805412,-0.024048192848282975,-0.05347980991501728,0.16502965355196808,0.07653347682296534,0.0010993390785115759,-0.1240985693722193,-0.41754957483232835,0.01123875496134703,-0.1820493155385718,0.02518211984308297,0.07092167364958979,-0.13532636877787507,0.03991504169186559,0.15049477770990788,-0.14006703558639608,-0.19425147379199922,0.012229130486845647,-0.0612603732699776,0.0030210225372244285,-0.2546971611323145,0.1171054990493253,0.03291498973358876,-0.006139679627106653,0.032350455956483726,-0.012270808590746956,-0.025415909138383482,0.11204638339169651,0.14295983804365864,0.048720414806345425,-0.14904821880302846,0.05522139982778435,0.3430472082555901,0.10257461918291633,-0.02172372794264041,-0.06658657541060709,-0.05610090502140997,-0.04503229623271561,0.5758397500985033,-0.05738588433534213,0.03601630124011002,0.06514889435279772,0.12234899258627634,0.1085747036074685,0.09314008507107846,0.18649967809338475,0.181086908209362,-0.16087217837174567,-0.16615502976101681,0.006002046694710028,0.1095594291188147,0.23562366179091826,0.028519546656836068,0.047695434892773975,-0.004292100776310946,-0.20840156452145217,0.23638194946128976,0.1268593794830725,0.014310012490209191,-0.22221537341287445,0.145557673606487,0.35833811869826465,-0.19884440821330043,0.0012206238012500467,0.3427076266079935,0.0555858634502052,-0.0033171466838715267,-0.1269478423390547,0.08190918711989702,-0.10306333130538917,-0.030093657757304694,0.4854735593709762,-0.09533592875476112,-0.5576535391159274,-0.03394428164950586,0.07635392173730575
