-0.04374831710830751,0.03341366161410865,-0.013811942946103672,0.01717054725506889,0.029708120390876433,-0.018517106831908867,0.026066312189218094,-0.017054603082722494,0.00017649234039648491,-0.09506908932480748,0.008540759981629321,0.00578812424551596,0.0382297181059713,-0.0029708790126842357,-0.006591623934276041,-0.0016599387831614208,-0.00772118946408055,0.008902520970798553,0.029402805978081387,-0.05375783359940277,0.008236348095798925,-0.011666332511990651,0.058296070079899114,0.05196271527547998,0.031040501525301543,-0.005794903502439318,0.031941480062944914,-0.015686552740211215,0.013122908512384108,0.01717152896196118,0.0034590579369347756,-0.06236751108202682,-0.0403923603441587,0.010256537386384061,-0.03993513746994437,0.011967219036521357,-0.0066324201265129485,0.019165857630432846,-0.012461147952186849,-0.022795455891386873,-0.0316831846039272,0.004884123449143541,-0.05374278376617499,-0.010682997516900338,-0.016042548104997216,-0.0038153870975391464,-0.08289128169428732,-0.0017138338998077469,-0.01947844669543174,-0.02118417000679702,0.028205663431469127,-0.018506704666752673,0.0021627660754137325,0.005338530936602845,0.02310525802732353,-0.04241465550179831,0.0014320020271119777,0.025334963836599465,-0.0236381039051025,0.046510516754530905,0.0036183413857021037,0.011720351061646988,-0.05647804938565997,-0.000790885468416386,-0.08618500895896938,0.07084443358927629,-0.0347445265581927,0.03214888575425797,-0.01919082488296657,-0.04609624743650264,-0.027773555030003803,0.0062270422293704926,0.041884533728552754,0.010642656940194372,-0.01627715054439199,-0.0028475924922307634,0.04189501735775663,-0.014231255924598592,-0.014681118713140073,0.03820004241817996,0.014002401354263911,-0.011506192326182838,-0.004105978338168543,0.0006684445252241472,0.06024454692618372,-0.02016701816024566,-0.0009999871822181292,-0.03462655811210998,0.01296547111280599,-0.011247562850048753,0.04032216466269322,-0.03170847201286457,0.04478284191013241,-0.06105218065318622,-0.03336061001063576,-0.017723769672927495,0.001955791596734567,0.056083026519108556,0.025411483754187614,-0.027466448712676915,-0.04706029491376882,0.018458930943636983,0.011676094323059936,0.06402977531449762,-0.04736687284518939,-0.07054655894911468,-0.028273063562963476,0.03357035061224684,-0.006437816241535918,0.01481799574229163,-0.03077924289723592,-0.030530049969882178,-0.043549177512557026,-0.008403151385232413,0.033432478312772705,-0.014972342529815672,-0.017432933710643,0.02073577786968994,-0.03274396516301844,-0.03389526165080353,0.034050796765538606,0.012587882816422074,0.003708932784627378,0.06848265234696095,-0.04117444392871276,-0.021282784300233955,-0.025656152287521664,0.0027397748650491403
-0.01987192039072911,-0.005564512980502878,-0.012305801086689062,0.0026881171742915663,-0.01832858437231798,0.011317521044218869,-0.06044271759022107,-0.004455259305558571,0.026931175242525328,0.028754293891181643,-0.06789617304499934,-0.007392369567387512,0.033341405787537706,-0.008116908329698691,-0.01016328488239849,-0.0606158555908216,-0.024231171163746464,-0.060645305289720675,-0.017865354845484627,0.006064827476481945,0.03154463811287994,-0.02326462248944725,0.011197580051897391,-0.00421855899615287,0.06365788264640619,0.06365457374865278,0.0056439042747760005,0.034077018242930156,-0.04777289649501756,0.02296809830216479,0.04520178391973242,0.0366056521873395,0.03742856298683605,-0.005523986828622867,0.057426301487115826,0.006748496099492239,0.004855707111818574,-0.004748220587929978,-0.004731264959126726,-0.01928286798875652,0.0001348787679738731,-0.017040389920255115,0.016800373423151105,0.011242498219460682,-0.013305704949262104,0.01828232658566485,0.07329313525091719,0.02059851167310979,0.018005376672792655,-0.016474270247945177,0.03785912169887006,0.03566849921157945,-0.04505668382768142,-0.058422075763676036,0.004279902000381571,-0.03167526288665571,0.040278370146349364,0.004639249050444645,-0.03697659471639692,0.021900864551002326,0.022968609445345622,0.0016244273072883715,-0.035920025697092725,0.004121894180822765,0.03780262954473524,0.011688041340647291,-0.005033610908071602,-0.04548032994266266,0.044369685781102855,-0.010191994002176175,0.007162311936970555,-0.018033288800170962,-0.002404475639751136,-0.05882990629558891,0.005981375047002514,0.007097523837212963,0.041083224320827526,0.008809034607748132,-0.03240207116112378,0.061225715953769175,0.010688432619139833,-0.049439888732489515,0.027956939263625195,-0.008665416589404526,-0.008546161216040854,0.033752862024886976,0.01177160181210146,-0.051973304636717475,-0.004709969877707498,0.04646409112129429,0.05725246206779526,-0.004256326192949794,-0.03847321988268694,-0.011366738227445305,0.0019656447377852855,0.0153285645258215,0.021242190607853026,0.028139022821700194,-0.03307929229232861,0.053525209434830044,0.0060793657677840444,0.03230267561071278,-0.007355784930638319,-0.049167438447011776,-0.0006143823724853165,-0.014704917963001975,0.008985235721924032,0.016475196651377692,-0.03227451126125547,-0.041292311916833746,0.029463942244633803,-0.009869051946942096,0.011023898947806738,-0.025784912218074607,-0.04281260261427709,-0.004424828007808139,0.037049246055391956,-0.04324662886433481,-0.029052408957217543,0.030434027341673487,0.010793718709489154,-0.04820904896990683,-0.021344254485951054,-0.0389875618515015,-0.049103808126890094,0.06306223838509346,-0.0055058316723860645,0.06615490337518541
0.03559842801332463,-0.0027832172526924383,0.007658718527059696,0.04683403179002408,-0.02348297843887008,-0.006985080232362935,0.06306487732797576,0.03053718905713303,0.041986379706296685,0.05805126070637763,0.004371067154290049,0.0023796692551446693,0.027670728165163905,0.04654633295042565,0.010849904233683778,0.02148949034532324,-0.04103048911798374,-0.007703798244565982,-0.00319284953773458,0.005434177199064653,-0.012001166569692063,-0.05352739759940384,-0.026937909940018784,0.03907189661208472,0.0010701338867877567,0.01779023507466178,-0.001201814993381889,0.02221781808868027,-0.038586477288888324,0.03150653856719103,-0.033410566358196274,-0.08351496185474669,-0.014443320581033198,-0.015032538159620485,-0.013524331322412769,0.005744315248749024,0.0002680295094024949,-0.02232057966470475,-0.0033552965469240124,-0.0268268215250248,-0.004414518811642991,0.0504255118252371,0.015414024239450243,0.02075564750312503,0.017108010574625084,0.005231247170784049,0.019324408333246546,0.010887431902379976,-0.02896981049955587,-0.06527434213002341,-0.01863502707721814,0.028224049620919147,0.004172717320927739,-0.004052874487479287,-0.011349280849304918,-0.05337279436136804,0.006276855463004402,0.020642935493498184,0.020237678731815697,0.07738743478338991,-0.0011281222777475219,0.06426160062768274,-0.013705704558832578,0.0019125854402279661,0.07709015043643448,0.0009009382455788782,-0.007605800866748831,-0.010097875712487261,0.05821683770947431,-0.029430337649912108,-0.013322306532106096,0.00013399549715216225,-0.02553685061036102,-0.013344234739866954,-0.027547698497722633,-0.042925557026802064,0.016464085125362838,-0.031040975738694018,0.045404744319133813,-0.08213041452665437,0.0361387286002122,-0.01811547154710918,0.02992614545308478,0.032190416387290116,-0.011587650002718943,-0.031936096842353566,0.002582417012648245,-0.05341455275543084,-0.002458710324480441,-0.02940318331809931,0.028246852742200103,0.007213856384824573,-0.03867594868925177,0.04100805323697502,-0.0010305003248580428,0.054790180538728986,-0.06285020152376174,0.05997796476204402,0.014766459945121633,-0.011333595809056268,-0.04599714494515665,-0.006438044646020307,0.008847877785495532,-0.02198198316240243,0.0557777458521717,0.04494947119239878,0.028438029245856686,-0.024026927389456852,-0.03263411374142884,-0.021928820278510633,-0.02483306552740759,-0.02444878622696689,-0.019458902915735855,-0.010350076706857345,-0.010187579519263064,-0.01388396485938643,0.03523041447748755,-0.021619746869796657,0.005499815440391795,0.022526815452421817,0.014287242276631452,0.02521213726718376,-0.020203261049098507,0.05626910016420824,0.014424296704982097,-0.031554412954538286,-0.018218389950320858,0.0009098843506172089
0.016735427377213008,0.03886726165552106,-0.04812390829452187,0.05677811567844233,-0.027278995792043435,0.0003365982731754009,0.026919096978776223,-0.011834272545581781,-0.048760160302415964,0.02880178920008518,0.007818170623311813,0.0564214840715827,0.017197585705646334,0.04429241550439163,-0.05990340357736794,-0.03569853609988611,-0.013014163142379725,0.05340809957675355,0.030220482546776836,0.007017741024548958,-0.018266174443122767,-0.012942960248760564,-0.013000478199356657,0.006524599889231307,0.02788127184638852,-0.03480402869730076,0.0018042905347930298,0.021225471359158424,0.017350286515895423,-0.04972692138463752,0.00914750201945921,0.04787903978356349,-0.002545227273795422,0.012413177848131915,0.050404132838996744,-0.02998191147049553,-0.0013407620702718726,0.0037464457748500562,0.04744739888104107,0.005635011151476963,0.0747037410989241,0.014723906050169284,-0.014072589563637671,0.03611687887861773,-0.01029250447433768,-0.010497395861988416,-0.004674353287712607,-0.09820127440634703,-0.03292520412987713,0.01645861774724271,-0.030959175142072436,-0.04378664663166811,-0.07062622935252037,0.0007859764110318243,-0.03414234871762087,-0.012281538317546198,0.006777302956825574,-0.04219546836216431,0.06165838141713054,0.0012292486948236661,-0.04325732656283803,-0.016556462818170404,-0.013224413177376491,0.027188503035668,0.0069621832320581455,0.048506728513858954,0.02582145195265085,-0.005284596148156196,-0.0008467293167312404,0.012577531495169342,0.023789207370197622,0.024124932237140524,-0.008017780067998173,-0.04894988815255417,-0.022727085681032894,0.029979063485544608,0.018653826517406318,0.013545302116094692,-0.0333237150470775,-0.04710785534377522,-0.0698341124582532,-0.00162533102613173,-0.0453800757330954,-0.03904574798642496,0.006572657500767215,0.015478727587925536,-0.013296364902466804,0.031178446284245338,-0.01853524264701474,0.016477474328877872,0.03661399350324655,-0.09517812967419417,0.0015111073950106102,-0.0030699205203054674,-0.014602767269302028,0.0030317910077448705,-0.008017816900393153,0.02249922842188554,0.06258518016018734,-0.001740514622987783,-0.011132567458979099,-0.014781925542101837,0.011451579969569472,0.020051920564532724,-0.049765206912658115,0.041740768789513626,0.024779385032096198,-0.004412343320948768,0.049726436547959545,-0.05053850563357331,-0.10737519182552328,0.06921426035818294,-0.018713392014224936,0.008916949304916636,0.03695915713195738,0.02863852906651161,-0.0011555967478171125,0.007776461558407672,-0.012438163083980906,0.009383467962086174,-0.0052072131402226465,-0.02392446160447199,0.04494010999914426,0.019055430109877328,-0.005813980493240992,-0.04451016900576009,0.0052502241052205445,-0.0030768885188557056
-0.03200441223181575,0.0583974596967331,-0.005628348736767678,0.03832649680325686,0.024509238682493065,-0.01015870226982619,0.08401774088091524,0.049591990081252875,0.05390553453373192,-0.0016591618873975993,-0.03039387998560759,-0.10986342361836468,0.05144648811778035,0.03434715375047503,0.051164900706685376,-0.006569646001380396,0.021649799801893885,-0.009978118278188204,-0.05611500346255184,-0.015388239667038978,-0.009530506242826968,-0.0458277881269086,-0.048374367507318966,-0.06369616770910315,-0.033386245645880525,-0.019930306179946296,0.020562446545656813,-0.06994866606040377,-0.07307016897486107,-0.0022189825182143724,0.05846718916392305,-0.016653649072611052,0.020635705540008275,0.03753181326361591,-0.023684060751307044,-0.012703927913152844,-0.02510527140278503,-0.08431799513830814,0.05334448562696237,-0.019225462877604228,-0.010028600474898015,0.009423882735697034,-0.004084010536873901,-0.03829888683923429,0.011961473375215487,0.0004954114425229809,0.0014457588116694189,-0.00843291834899378,-0.0492361194236758,-0.016686861206333115,0.017648733998551335,-0.06878208534618069,-0.02040712211720416,-0.034157682621120906,-0.0712518103380551,0.03180311525192117,-0.07626981195613522,-0.027497488919367017,-0.01932408367143218,0.04043921382368301,0.05103661567815213,-0.04969243282575587,0.02865009936819909,-0.013902396848406499,0.040985481026271635,-0.04014108770231635,0.0624915065466748,-0.016818895163236276,0.007994385423574923,-0.01021270119390877,0.04184675621906387,-0.04102376216578061,-0.006308827025325388,-0.11316562893820772,0.0532343386640783,-0.09160253872496042,0.05478475721927598,0.005567002765253917,-0.0026137374035220752,0.041947733056823776,0.0011262979781532408,-0.02222670968865102,0.0038990024608772235,-0.0019376509085970066,0.06449337143604095,-0.018817537296029366,0.04778676224032967,-0.006118686848514412,-0.02884020214158317,-0.062109227326967296,0.043673938765356426,0.029808870785379863,-0.06607152374910771,-0.05667506501324643,-0.06430692390501712,0.04089826423146451,0.012759983628193647,0.004453435079454361,-0.02822587602061466,0.020678159938690422,-0.006794685462596578,-0.05401277502925264,0.02044828893139643,0.04095500896224926,0.02431116027560636,0.04775331195347196,0.12324783209680483,-0.007928226823777073,-0.01633876421828099,0.0571123056346564,0.07044475313550536,0.01941103517610949,-0.046843374834569046,0.052947603500778394,-0.04006042796992212,0.03597409370058728,0.0332960616736769,0.020184013488109095,0.014476841263626276,-0.005505816459810025,0.072184857060012,-0.04281935455076737,-0.010592470629103548,0.07793804130898592,-0.05801275575464963,0.031825808915462946,0.014360702307001674,-0.016251210004688824
0.03996652592690286,0.11224632107379136,0.04976248164091485,8.209354747763189e-05,-0.020817943385291342,-0.03842438336873924,0.04414260047950463,0.056845793076895516,-0.0013869848251829265,0.009827285418464197,0.08584213037816432,-0.11635099053016332,0.0023411046798201274,-0.02236666127576014,0.030292088019438786,-0.07101225325149235,-0.01540710630190211,-0.006709873265283747,0.04575902971092914,0.017186833064764612,0.09322428744333378,0.034776232136427845,-0.0784497105510762,0.0037498984882776815,-0.031156560089747216,0.06457270158516207,0.014788458869418914,0.05333713563193903,-0.0727430884772079,-0.003371656169515888,-0.041496433692795105,-0.10802186215055057,-0.0017878445922930902,-0.03580514914099254,-0.04269321674329592,-0.0013009315067175219,0.11176763982477907,-0.07990008800640618,0.07882433262278807,0.016531468004359253,0.025531684913865073,0.003379451047649698,0.039199110453397995,0.06616748416001701,0.005967563210123958,-0.0014936130173196097,-0.018308951178733993,-0.06744888972737575,0.02293309948298696,0.0010096956515937981,0.011674275516468437,-0.0163546190572193,0.034418017045487415,0.06513423249239213,-0.009373681844450405,-0.008539855454458097,-0.024188758642035613,-0.06092324385949473,0.03179862192678819,0.09123965093785773,0.03873141777607714,0.06882847147187764,0.03074235053047078,-0.07300256729570782,0.0069928101858687764,-0.050344042573585344,-0.028417268675696588,-0.03996766940712242,-0.013229232591263967,-0.082585034704933,-5.3287829199252216e-05,-0.10900910884767874,-0.03454911236342835,-0.03741163899803497,0.07431420403539293,-0.08793806089842236,-0.038053155330937734,0.015262387813243709,0.025324181731462916,-0.04713718246204344,0.019832142309834617,0.022856728560522205,-0.043887855502743996,0.021887855422451766,0.0070733699317677015,0.010387469116729506,0.05227584878800672,0.011764914816491565,-0.04774898782000115,-0.007928543551343164,0.14519508197179395,-0.037473411168060154,-0.04542216730204944,-0.017531467672658174,0.04170577660376453,0.02463380143798747,-0.0016884958761966217,-0.0012801472733610176,-0.0033451795654271363,0.026315859949468678,-0.04158451874832897,-0.045771075825558526,-0.015144035900456316,0.026084791650842792,0.01199635879141744,0.020395603112625,0.03539127932573879,0.00738296668112705,0.008301029450720572,-0.049054068115158035,0.07382127297316807,0.04357312001794515,0.01818221432766535,0.020892440569318577,0.0522861423227641,0.04275930884066499,-0.013479873432855213,-0.04228879590250604,0.039001995231874836,-0.0667785309398334,-0.0065363446486308464,0.06992023788745295,-0.06361879535583835,0.10381508804153952,-0.058888851862358635,0.040005079643637066,0.06830937360083221,-0.01922261277211375
0.14572079079969547,-0.022233908189856388,-0.03943775944150021,-0.0689133123283184,-0.014796021675099793,0.015099928068262174,-0.04724515600725868,-0.07284466904301218,-0.08352615627689565,0.05580552353569782,0.1012540974750483,-0.19036596791040308,0.005709010952201661,0.07020170822305406,0.04499079467264605,-0.02031097140266316,-0.051891096237416515,0.010769128852380442,0.0010517485760530888,0.012531499982851461,0.04348375959155852,-0.022911664454614497,-0.054465334630785824,-0.04861526912502999,0.0033546082204096066,0.10319763688221212,-0.03296271447016288,0.07980206236780706,-0.10123029014202863,-0.04339756174922771,-0.002309088810181344,-0.046382011139051445,0.08572408974521323,0.10051461945038338,0.038256291020599534,-0.05128730103994639,0.12622435300961243,-0.04775902646251643,0.14419990210587497,-0.05990995664636494,-0.01804484567635415,0.010522408574352613,0.0684435222123104,-0.023422403278153436,-0.04858137725856961,-0.01592701599603104,-0.03556614179752324,-0.10418131691938066,-0.02849664991105152,-0.015360115025148526,0.037008691600298155,-0.10525143086426791,-0.039980965680398946,0.043265863130455835,-0.040677308770280085,0.008338309720197114,-0.03790914953974255,-0.002967719032728987,0.05457040735052382,-0.03822005277721231,0.010588800420515706,0.10414707666841082,0.07880538365428151,-0.0575643351146291,0.08138412567782122,0.047058140021382415,-0.02316624565890946,0.017248159085066814,-0.02744165937059489,-0.038152792341920115,0.12450887992040735,-0.21076974410346994,0.05623465599071445,0.04849931928266756,0.08022860950899272,-0.08192440812076777,-0.037185390625004915,0.002044510965497277,0.15644694020468866,0.07032540704329096,0.04096735279447408,-0.008045521219297323,0.003863476065353531,0.01633694256431509,0.16805037532038092,0.005240930421465082,-0.013149984872367201,-0.04998678666163304,-0.03753615856074928,0.01961238932450255,0.009215484111642028,0.010303751858905122,0.054352417075367136,-0.019623473360729265,0.01161722376836686,0.09053431605739952,-0.03164914406077542,0.009137677185327528,0.10314855314511143,0.016321646730277396,-0.09169970200124881,0.0741104161858303,0.012935200991719105,-0.05839121216384131,0.1197692274792644,0.08131917232489233,0.028874483584666998,0.1494681463341292,-0.002215381988502879,0.04130164441504238,0.06893919319767154,0.03586288640044967,-0.03198727332088336,-0.05345128332772847,0.02781205938295119,-0.011427134287231275,-0.031290912102418855,0.014270200768317542,-0.00779895829906279,-0.12421594767608869,-0.017201645150157752,0.13694258036184728,-0.03650733776260337,0.10725861075212645,0.04346352175195926,0.0029915057941047227,0.1387429364108272,-0.0624367078598291
0.10634214152918263,-0.08636570082580541,-0.1362686607918759,0.025742614543648925,0.045546766146463996,-0.07197705442982946,-0.034969164009757116,-0.09874910445384265,-0.05773491332637162,0.059719280973549595,0.12674135050547505,-0.04913180913027224,0.03682865097529232,0.0033228491954169557,0.03813727931564156,0.03393349500171324,-0.005079309785311274,0.009485325119177209,-0.020239053694940064,0.0389724882612029,-0.046309620011842245,0.10330822015698717,-0.07349545655309642,-0.21700479838744183,-0.030289158922817496,0.11578106094764923,-0.009900049503048252,0.021613157237766842,-0.16059208677562958,-0.018346782156973628,-0.0764850425368603,-0.08188691167707636,0.017855477436009626,0.10918077913570177,0.06776036243502048,-0.01681163197242367,0.06442252945021464,-0.003352006142162424,0.16670261303266978,0.05318510550711347,-2.7100701223634566e-05,0.002212274832692623,-0.026719300286287793,-0.02703318356460893,0.020559682094263766,-0.000588964459575594,-0.057093352620309054,-0.040979353074962595,-0.022917380306854692,-0.04780844812610934,0.017823559133341226,0.06544478404034441,0.04046441316291297,0.014849881681395007,-0.06536586328642051,0.015614607599169735,-0.038526981810452436,0.0717546916436529,0.03660663361170614,-0.18067547211747823,-0.02117329831195042,0.0867872249966382,0.026591432359441888,0.011832424579849208,0.020503155829011355,0.060824677475937707,-0.10308599370847271,-0.033304173617884555,0.039168233882776585,-0.10230301758713341,0.1761010335201588,-0.10941106207737072,-0.0281406645285325,0.06159546510917222,0.08619610190308129,-0.012579471430909832,-0.0030773610693547544,-0.037838129224245766,0.22000294159638087,0.057726533201812764,0.11812693011017236,-0.0644291244748075,0.07192985491118153,-0.08285487591684934,0.1840010162487522,-0.036860022903353204,-0.09050651264442035,0.015571875926767,-0.039850884747086694,-0.054700864880205244,0.032571034079852394,-0.029126533891840695,0.21713949723413764,-0.1088954808083405,0.012064458009908623,0.05062723766859377,-0.026645529205036038,0.10045566879580432,0.03343629475621657,-0.11363438870168403,0.0037786048122460713,0.08070728422087706,0.05787653574654513,-0.16669412466127143,0.035784475443502446,-0.035432007769009934,-0.006890147298075182,0.14659066572108417,0.05062763873150741,-0.004103793526153081,0.013279257368692506,0.009776004741654517,-0.06402108433263093,0.0042634460814838515,0.03254046936878289,0.004156531997945769,0.043122842449669053,-0.05002286923481625,-0.054675586367514475,-0.12909796713191338,-0.09491057561307646,0.05261687956479836,0.0022836823363290744,-0.035880316115173984,0.12174836218270181,-0.046500738962775234,0.08736332415171391,0.0177461271295693
0.1371149847885497,-0.0806961673956659,-0.1265706274000989,0.028487031902333256,0.0162000061494798,-0.035239711241442546,0.08983268806944282,-0.009664481818579252,-0.09468071292755258,-0.04033771584179797,-0.12397710439346549,-0.16627531351363706,-0.05359542826314725,-0.03770320855520242,0.009872140935172274,-0.07717799624196153,0.011284310780954656,0.05561693508314201,0.013420370195085993,0.1683873337406829,0.03968251488604842,0.027134133006064372,-0.04609597975271018,-0.12448255634487486,0.049335880042317315,0.0696407315047864,-0.03869857316011818,-0.05413277741320299,-0.06704081509532463,-0.01121958507373762,0.08331751928595467,-0.1279828931975809,0.0312939237907208,0.16523378495351226,-0.014689233044481508,0.09222725973619138,-0.06441638304851852,-0.009727340100259886,-0.002950094558014643,0.13594854594218855,0.07456447073965516,0.006447870514301536,-0.07121013437100887,0.05621440876537099,0.01582580223807936,-0.004618178073151184,0.020836880447725428,0.20931154914020816,-0.000393832368607827,0.07904540964578403,-0.03397054127452429,-0.06536118101424646,0.09091049368905744,-0.02852283267040523,-0.17957341999790652,-0.002447912370723825,-0.12652218249206137,-0.04096809760913083,-0.04367495609029,-0.04211245973812773,0.041865168431560594,0.01115313958234649,0.02854203413675726,-0.09857905493294221,0.004035612885073323,0.09051652094270811,0.001496989975611767,-0.03786833709028498,0.0730210294755426,0.08604208130022803,0.06809751262214638,-0.010921400911359814,0.17261626532067068,0.021440153884464658,0.1319754481753552,0.008132024347432189,0.13935245629033116,-0.07842285746767337,0.11790990623420429,-0.0091394640035985,-0.02757416246482983,-0.09466029012854166,0.08589873151503395,-0.03863187803868764,0.08849410173856417,0.012835695069744935,0.0795638562834642,-0.01198765533383747,0.008057977828086552,0.007825233878587226,0.21974683736621475,0.009804357053929864,0.1672646572355563,-0.014436046577610445,-0.0479671615016606,-0.11863960198269644,0.0027158135348635724,-0.08311251299996567,0.11323114834151547,-0.02562219906164447,-0.10018524704722723,0.04727468934341117,0.07380007378409202,0.013237719843783049,0.01491720422175381,0.007807991684453745,-0.010522887386793021,-0.0014950685648514581,-0.04756710966891669,0.006796556690606268,0.07838503669096127,-0.03929119222231219,-0.005515369425420084,0.29381134905196155,-0.04474818791396132,0.06441462500915573,0.06137583296736812,-0.09736309791806498,-0.07832919567227999,-0.033497628901515294,-0.005170774669721392,-0.0805904668630714,-0.007072881102770009,0.08515774117455782,0.05540176855940958,0.06086117051650885,0.019214990591775817,0.11786319616146329
0.05037423315373782,-0.09374947673394923,-0.21249947461160068,0.07528165394116143,0.13043945746654276,-0.053574251623908976,0.2846285301591879,0.04431451995272796,-0.024806018679462024,-0.03659522983991284,-0.1750144271857924,-0.1824352278245942,-0.06729271272751318,-0.08468039124105158,0.0851004861871887,0.03187030082836938,-0.08001317223125322,0.11848325378840913,0.02587477404448168,0.09876145827323822,0.21650605132057119,0.1081932078802181,-0.09563545123480445,-0.05900950336987434,-0.02482314452897964,-0.03721014999861598,-0.08615544353638262,0.1084290253809955,0.07399777358929635,-0.05473662535409688,-0.11151582978278557,-0.07212209437980846,0.1885320419268427,0.10368965526729113,-0.015104286123101732,0.06309880303653775,-0.06911288209126376,0.012237507139352127,0.0733785903474998,0.12647472011271546,0.08150511269707543,0.022984210395652564,0.010488464831541405,-0.014156218671513787,0.06761751131195158,-0.08825747682856379,0.009222526653485157,0.067842108896903,-0.03430845137051816,-0.07323153118657924,-0.004954069658059158,-0.012097400735037544,0.06076577969162402,0.04609641968194451,-0.339387592819479,0.04832703355855218,-0.18134292572004557,-0.09373493992220029,-0.06972398057133297,-0.07802375316913635,-0.01307720654079281,0.02580017728496251,-0.013151811018555882,0.05398892226351213,-0.15189830060348825,-0.028235361068273315,0.020863463602944204,-0.04407925431948424,0.14225071353767207,0.013631150985269881,0.0826953679140998,-0.008895636023701725,0.15045412902125918,-0.003800762082097556,0.09457252266694863,0.148810333677713,0.20923390441141465,0.000681810143831989,-0.005568938113328237,0.033115397911837215,-0.09732647530442207,0.09786280844012721,0.019195502308197623,0.01103114147807474,0.05665714736622061,0.025453082610791673,0.07763749197858999,-0.06722728819987724,-0.013213717415428688,0.02836338685914895,0.3068522941145637,0.03849257993444868,0.18312513689140672,-0.10740264934197388,-0.03999806382448772,-0.13445296998787254,0.0214016259836338,0.030011340889956918,-0.043318390180473634,-0.08843227758339464,-0.21108432199017596,-0.06382800992100676,0.11361769448688434,0.0361981772884998,0.0049501106464704655,-0.054101376999490795,0.008909622238163521,-0.01280490805254272,-0.07931084232601834,-0.032396936066023264,0.03177769908697308,-0.0032262791379926367,0.028671055086252572,0.286198197881855,-0.034235713554907655,0.14067708671861143,0.049300630359248525,-0.17046713428686014,-0.09510112102307176,0.05846951477472954,-0.040750635556385695,-0.15813611037594466,-0.11238330283712143,-0.06932051874031836,-0.051811626769076295,0.15087171681936073,0.00854289089557471,0.011661772644161263
0.16287511694601153,-0.18627916011732737,0.0020660857632078915,0.007812773219322345,0.24478554253594037,-0.36227400603573257,0.20373621477786236,0.02907121555862757,0.05970167248895979,0.1225595131268925,0.037974755128607866,0.018902839766912132,-0.014153282431400276,-0.05578011864123863,0.0032745556965174927,-0.13468215343844522,-0.001796421520365102,0.11087658388853833,-0.05777000182042015,0.20120401521745251,-0.10666206495217238,0.029440397496695758,-0.06329821935147456,-0.3583592519308601,-0.044359624195933846,0.07968165388973633,-0.009890591036983755,0.07150898413996223,-0.10378180003661178,-0.059992630815712426,-0.4479264352888254,-0.12261482046961782,0.003225098252058067,0.24114270020767004,0.005729685742951415,0.01583907475945362,-0.021890258677217146,-0.18907352076914982,0.21476798446969592,0.12933650876789368,0.1832542539662068,0.009570747711179101,-0.04115375242344034,0.005789753873116951,0.10747321014518188,-0.04112262459079626,0.08896685149573386,0.13967542459676574,0.0645806485244079,-0.1300002283753274,-0.014018750412944007,-0.0343882303942507,0.01962636619572264,-0.08007430888792165,-0.0706529231671278,0.06609000725474748,-0.17177389850668276,0.1397050298432441,-0.07911473677105146,-0.22053653795065825,-0.09256438573214855,-0.29654480020980967,-0.11576210515922092,0.09700311194113045,-0.15221248238733442,0.10670375130591045,-0.03963227175652283,-0.06646205946121063,0.10693997529924014,-0.2399184874505456,-0.05028628746780269,-0.08368690961805833,-0.067319988885462,0.07013300599239596,-0.006589487301293278,-0.026278292015638523,0.18765503601725805,-0.013139698308179336,0.13127828347046258,0.17801231076317806,-0.00750993333869882,-0.05705125848424549,0.12918545374753432,-0.08726461237957461,0.1675275657169973,-0.0203834333217935,0.12862543050307257,-0.04606185361215695,-0.05232849104822987,-0.009212371985265831,-0.04921443464777225,0.01662202147129672,0.46968641470808076,-0.16821072149449892,-0.033555888501914724,-0.15000111446542458,-0.04593230578715608,0.23928095332280658,-0.031175918036824995,-0.16840210653211865,-0.2124313263965645,0.10882171194452313,0.058772040348351116,0.12249798294369185,0.07944143473637318,-0.07675392498741128,-0.0294981909667688,-0.0006434385336950009,-0.05477888853753363,-0.012115472628439984,0.1463906234283312,-0.08354996247550545,0.06757787586476542,0.4030653311837581,-0.10969745940833017,0.09020413031445741,0.3476660965619357,-0.07801530020493502,-0.4657001081995417,-0.2141777380373747,-0.058260533855202135,0.10444249669120477,-0.06404409781383849,-0.24565656201065741,-0.13231896190665984,0.1447669908776411,0.2558899373206104,0.16357144175707716
0.015234100261994399,-0.09315768460134632,0.1356918654668137,-0.09807846782062735,0.1677964619468455,-0.08501235037911269,0.076673386625037,-0.10890866648714409,-0.004098323318193634,0.02586241909808662,0.03594356535601343,0.04770068166429416,0.06349633827595721,0.06488053009123362,-0.07469271118514678,-0.18665139637818204,0.08128331018454728,0.3211424599673796,-0.10548278982225046,0.07142918620297145,-0.009358202190273009,0.009109230075544247,0.07193676907009802,-0.1855086905425185,-0.09016301744001287,-0.012589866237150511,0.16175477224135199,0.2752451692407651,-0.14687225204965396,0.0437254032611645,-0.2088773807138187,-0.1572413904025003,0.10096065974807418,0.059468572831542006,0.0570832850058157,-0.029455177517445086,0.07910200833761964,-0.22026912618506275,0.17077297895070295,0.008504489206136676,0.21972341084844552,0.02946800538087952,0.023706509540516955,0.034321382732649675,0.0781492361279816,-0.019835873294473227,0.024159604267491856,0.09527814348440339,0.08411196976433936,-0.16119379177664653,-0.048942023745266724,-0.06203676577711779,-0.08527966708352124,-0.048784324498518696,0.052135290610644675,0.039637799962308456,-0.276042394142026,-0.001662855943982033,0.05034189676749026,0.010132371815935461,-0.11679561640441602,-0.4473237858001465,-0.1471064072038906,0.35785517723230453,0.04074272670535546,0.31225133037723996,-0.11258743727468598,0.0739082896520521,0.14234019302392348,-0.20159284485716777,-0.05792170850556474,-0.06955642447435648,-0.054481103479303086,0.004550414018816746,0.04757070375013898,0.03646660150946199,0.08779603766507485,-0.05228397403687424,-0.025700709515975122,0.10559882097607085,0.19587424944911008,-0.0694540954301846,0.09047495599037905,-0.1673902687400993,0.273218683883452,-0.007925443406869006,0.1301987819691975,-0.018493863287654084,-0.1347176041631906,-0.008119018336090715,-0.1660245959623043,-0.04187196146587092,0.21424505056956758,-0.04032959580601696,-0.005698576266158976,-0.12362007734536473,-0.18326200994759098,0.11922184447041802,0.03539040788187071,-0.05236411062782952,-0.11285036922662411,0.16415434298146866,0.1331909692188797,-0.11085913669609335,0.03322030140423963,-0.000870833000849061,-0.10038404339200885,-0.02223317790964272,0.0038893784324839143,-0.07337266242314616,0.1741002472745822,-0.20954167322071326,-0.04790599742317009,0.36874924945990784,-0.16334698371524106,0.11777322321086527,0.2993236891271392,-0.0014848892200663318,-0.26666236198695825,-0.0727581667049788,0.1121248363616743,0.01380780617905151,-0.05120396852978946,-0.041732390250731645,0.045088936260522905,-0.16994817623348116,0.26457380835800925,0.22347914035496697
-0.12079527598570161,0.054278740527510944,-0.001706734401090076,0.09654394938089031,0.06516590964442649,0.4220751072162783,-0.040488692943175836,-0.09411917214470839,0.09505060537211142,-0.20126215540660905,0.20741648498788298,-0.23385418823488038,0.2085563902334321,-0.02031634840680984,-0.062284017247526524,-0.13387392984773266,-0.05646987257972889,0.0822476909675279,0.060112548430016725,-0.02874715770037778,0.12264491595003889,-0.07584709643398944,0.021168179114206265,0.07580377005599272,-0.07542344960497402,-0.11525197449700292,0.13450699088364756,0.1238642262300965,-0.28507151997436475,-0.012488512499903886,0.3390787916764722,-0.025301239406667283,0.14181105161665153,0.009131316441225735,0.04766103715575325,-0.19420968189964546,0.18401774341443555,-0.08692013230572407,0.13518971005723143,-0.24063301971017878,0.15788277553773608,-0.05604458115227966,0.2157032549438379,0.04971857748309369,0.09612470093779196,-0.13456562170749808,-0.04814697402286056,-0.15640068079045075,0.04077094110479643,-0.20674448637253434,-0.027780574286059033,0.010934945063903165,-0.026597797845603132,0.13143585501344718,0.028869134851247837,0.0677674003117932,-0.14739287241185847,-0.10127714374516973,-0.009463197955524204,0.20351165136543906,-0.07575458791813112,-0.022616424703819974,-0.12454151254509206,0.3500044852004478,0.2507929007002601,0.00021804750857355273,0.02268057992108516,-0.06116394574488289,0.023897277697527038,-0.04579397898670458,-0.12907379436673694,-0.29318538139720357,-0.018047732867863157,-0.05981712015771316,0.0231055005876523,-0.017331783631759884,-0.018240252827742064,0.009425233032564281,-0.30150263121765924,0.18741235978964949,0.15651463910116767,0.17040044620668104,0.015599892767908255,-0.14838474480621625,0.048894313834166994,-0.11060830811828044,0.06159965446836513,0.10600779563604665,0.20636720595553726,-0.010194729277260405,-0.04333512030502609,-0.08768801811685614,-0.04180674192786628,0.301116844238907,-0.0767903005512933,0.02045066422374485,0.07294720063834252,0.07381879460485942,-0.0645933527077899,0.03724309438177605,0.08288595193910399,0.0332751799012874,0.03283540884548072,-0.05680468184289097,0.08371902849041928,-0.0016787868462014629,0.12946023037690604,0.08741955421195223,-0.08439680649147029,0.039008144320559476,0.1787700615312307,-0.05015241382648138,-0.02783832569280886,0.12959354596777065,-0.052606444427724386,0.09590813726696747,-0.4138774511479956,-0.1845597371198844,0.1559433457188915,-0.0024780955188095544,0.08980405133699546,-0.27026976110374984,-0.0923836259554114,0.24468157027519563,0.025334293584526765,-0.151324022173606,-0.470258852381511,0.04804074780420969
-0.0003946256940414746,0.18051089844752513,-0.06559748029733553,-0.09354049129725875,0.047247957105122994,0.4222219486287519,-0.2952497705386573,0.01278689119380155,-0.40663698475806503,-0.2736459529876027,0.26842110940258423,-0.06682776132236255,-0.026671214323774027,-0.0543435726271382,-0.46509866992681714,-0.15060628372782917,-0.1478377421497932,0.12963649715676812,-0.06627327768229893,0.09806853431264703,-0.16456839020616998,0.10780042763195659,-0.06057314177888668,-0.07693897454992144,-0.15875182050893633,0.11767895826797437,0.11391865670370215,-0.1672555334094076,-0.015587182648244567,-0.17345097911137125,0.5288023163974084,-0.04985195848124874,-0.10535053690429291,0.20217376875030268,0.009666705397202912,0.04012584756947955,0.1750824690582281,0.049495757851919286,0.016452511938781937,-0.037409005197552504,0.15589205597659433,0.005997399149939009,-0.1921010289509392,0.1489159833568665,0.01956928451954762,0.09243900717810849,-0.024617406641376384,0.09208229752318602,0.21209246119027142,0.13332978131139464,-0.09899787911897252,0.05529284189807231,0.12440684747981846,-0.03195731444744308,-0.049204120450822515,0.10230013111518864,0.11027212733321048,0.08745644766821149,0.003190637134625075,-0.13300873070646252,0.1047144480282325,0.019476578816778202,0.17669159677041407,0.30270526191744856,0.3268860248777499,0.05258709813861562,0.1507256431533157,-0.10344680314735387,0.012160463494156924,-0.11331759782973709,-0.1887276818015394,-0.4766794359371827,0.1467706607823028,0.22838606355349794,-0.16184169256527062,-0.0744655548427405,0.17407388612176689,-0.140910182744026,-0.08527507369258776,-0.042931773973366484,0.1890523038226718,-0.21438493593771424,-0.08748657437664456,-0.19314308415046355,-0.00268008631082273,-0.11843310336562736,-0.012439211678296584,0.08234186227561377,0.2822752949176821,0.057938888395140664,-0.08944188488630557,0.07232581771379036,-0.07909620888740165,0.04814563999435943,0.025502310277736147,-0.10209128701358541,0.0045783493232153865,-0.015246898179655466,-0.02564140439436942,0.01853105317068149,-0.0399312192916434,-0.017179744781229207,-0.1531622633304563,0.11831349863005025,0.0006741471985487719,-0.13733750567535402,0.09939912043663535,0.09517569363873328,-0.09395178858348177,-0.06805864929918114,-0.02449782761279904,0.030773051492244928,0.21203780368879827,0.10100644491102706,0.04151065095534095,-0.10190935558964814,-0.312476415818251,-0.031101671181593446,0.1470441481152892,0.030721391400080376,-0.0017875014725321906,-0.2058586890537596,-0.16300231984559926,0.15406236125090433,0.14341922623777156,-0.19956706281247855,-0.494834252998683,0.04411793696222762
0.04466270343190337,0.2793027915145203,-0.0739846891418716,-0.059188576134381,0.06884492684482724,0.5504577387444948,-0.278767944182928,-0.05018312064393042,-0.468587195025264,-0.2268147903819556,0.1736564675416722,-0.05716037954860004,-0.051829562762162225,-0.10580351733652747,-0.5169015069546213,-0.21271003721615042,-0.16907649839789432,0.2303199705252926,-0.1253594509721986,0.0820099420623539,-0.07682120105920855,0.12482340183928282,0.13722008234706234,-0.060304754003887434,-0.1795860513149729,-0.0019666327523353198,0.1834532288390003,-0.16809149789523675,0.042010017061273684,-0.12259426658109264,0.465958630495748,-0.08195280107059379,-0.11891527658430967,0.29930417371956625,0.07714716470561117,0.19343799703214673,0.09680396457550766,0.054527878919980836,-0.09998371865372657,0.028093518988467764,0.2249071427123317,0.09332645850745204,-0.2585081090674375,0.09077864292896953,-0.08717858269257693,-0.010454807984405588,-0.10647404266846161,0.21909640397101718,0.17837925572860366,0.23431015384161707,-0.0716805887377993,0.03772471818233421,0.26744185870998927,0.05115589428265363,-0.21671076651334925,-0.023357062667663256,0.07459874876229418,0.04312837645716782,-0.026205424012021063,-0.23444883573480513,0.08759629529826507,-0.04296631436307867,0.2662487221017736,0.5472078635596859,0.20180642175302607,0.18751671149824187,0.15143523793489702,-0.06136664495360665,0.14707597354165242,0.021240747007263656,-0.09715627817291848,-0.37897575626887725,0.26848133107371547,0.03193043606678993,-0.16796786158105062,0.04354863957576787,0.22950500954948133,-0.1473199375027588,-0.06800671912584026,0.03209579747937626,0.10576591548417084,-0.20325523707008797,-0.1759446663527592,-0.10678112334743982,0.011975246444664904,-0.10695395132885431,-0.11385321762724074,0.12984606326554596,0.1842584096869213,0.09263252650437329,-0.1453387420484823,0.057638977340934205,-0.07612899367410567,0.0033393109156931657,0.06970854185712498,-0.0742464420171601,0.15508712676477573,-0.16133486734144373,0.16941779386800784,0.10338390353681753,-0.15552946616302224,-0.0411785024528498,-0.08806123088742573,0.04947419387581151,-0.06898258454124738,-0.08414372494940556,0.13168439454503142,0.08934711316244294,-0.139817728970005,-0.06324261667615538,-0.13145966105054513,-0.09240170108896169,0.2645310489955428,0.2804312563969315,0.1910097436701781,-0.20597253588868258,-0.2866150321048571,0.06022190287233182,0.035361883895308775,0.056939810590449856,-0.10898945893679535,-0.3683043104204602,-0.07527357244491915,0.20595816186190152,0.24797842125262312,-0.04841465881884044,-0.5190407730254383,0.14674617844528723
-0.14167637983045145,0.21334758251693317,0.04007422924137879,-0.02171427653293052,-0.04766029902035664,0.515414653301587,-0.27220054788822234,-0.11540716353982892,-0.06319265435268298,-0.2304152512168434,0.2350145399762054,-0.22592987832131625,0.09456568194266053,-0.049846979908620165,-0.17873103522624342,-0.1072758992022939,-0.11066701430114032,0.001797101267066888,0.005136403529181957,-0.02307117283655074,0.11587425735418963,-0.08437524728946308,-0.002842813997438585,0.05451338191007159,-0.11748951848510428,0.02479515084134914,0.0027638751003253898,-0.021614290054168796,-0.24013345014127993,-0.15866611855832458,0.4877328763254511,-0.11098892539593913,0.125131764533115,-0.013925310101005449,0.006603532303555812,-0.18953973077211841,0.21226413574416803,-0.10157391251323196,0.05051025424222168,-0.2551180834501666,0.05358922194892209,-0.01699995233041297,0.11593171797946136,0.07883516671888517,-0.013302418372217717,0.03442865228971547,-0.017978869190651326,-0.054551650358901076,0.09178705842660444,-0.10440487289249716,-0.0923513692491226,0.05352249685792846,0.03743738786935387,0.0890920369172493,-0.025054864246658544,0.08562346755473346,-0.0341026888516995,0.0320309394659874,-0.025544920867125946,0.02730803871118617,-0.05787263901773775,-0.005460934688915665,0.06508142812898697,0.21926797083938018,0.25716232712510156,0.05763613212300894,0.11061803549194527,-0.0353602446606819,0.048332000057897895,-0.010587287968361425,-0.10493278390641772,-0.5628341493812785,-0.0125120047655635,-0.010956592367495003,-0.026344523280093214,-0.01619076890883629,0.009002011916867975,-0.08748722620681444,-0.23957840734484115,0.16295869658525455,0.12070005290663596,-0.06959263177791492,-0.05746550988109187,-0.1753022976411317,-0.02042867403461587,-0.19577173831305836,-0.00638550835691198,0.04952561363346902,0.22865308562957126,0.0573996755344178,-0.04428791510791054,0.08344907005595903,-0.2948248126224066,0.13562512056471793,-0.0549691654710639,0.13212913993788353,0.11658606887057599,-0.0004388259190741105,-0.09494362791157993,0.0951899447525594,0.09519183259299543,0.01629637008206225,-0.07254828892294862,0.1214084570404818,0.07956994703088677,-0.005287545349492397,0.16749107251082135,0.012082175662909115,-0.1425243366778342,-0.07788808208507281,0.04714403349887729,0.04309225914685466,0.08704010569019134,0.1094130030126769,0.17245254149182065,-0.03686587408160885,-0.5634010934203312,-0.10902151894911978,0.30347584103887393,-0.07942453792372683,0.11852107882152225,-0.16070164460466244,-0.15082941600787422,0.30003857976207476,0.043769019864440935,-0.04499875851283349,-0.3422740720061533,0.012503345676240396
-0.09935689842802406,-0.11099110014842899,0.05244451419593095,0.0401314532633753,0.21511417723997048,0.1273891616156456,-0.15929466255017577,-0.09223432342056631,0.022665910496988795,-0.18377662971307432,0.10162724068716156,0.044159149836795364,0.12054600235444021,0.0025749125494260987,0.07708403629642013,-0.059730276271507086,-0.10273778334776329,0.26354956767789056,-0.043316501297105736,0.0005329516819128768,0.1968500975060088,0.01177156857226128,0.07241830623157815,-0.09016191335296833,-0.0818548216588725,-0.1465059296975227,0.0894596502531303,0.25008216697837715,-0.06929846763019565,0.0038035784813168464,-0.28030622438341235,0.07041380867398299,0.10895587603730374,0.07155955845995074,0.09450804647469224,-0.1350105071662763,0.1309573278878583,-0.16061151780314373,0.12829290513938202,-0.04401261508363499,0.18927465941879149,-0.0015906518787259611,0.053031582815656675,0.09018088019599267,0.0004190582251717211,0.00577254660782537,-0.028489682615131375,-0.003310396304680514,0.11004767288816594,-0.21316218352195673,-0.058726372600570946,0.04124419083745903,-0.034731753061495306,0.0702338660872018,-0.021627108772333398,0.03292566892886257,-0.1288671102140013,0.026771781030183506,0.010998146431198955,-0.24135222657122052,-0.1412168384311563,-0.4258491031311768,-0.06509035390878685,0.2448240747094053,-0.029940602212817566,0.4008216748450426,0.043088600925037454,-0.09568774006707806,0.038597882445797746,-0.06691714079574759,0.10343231260275418,-0.08496216399826857,0.06195851454393753,0.07602116344599225,-0.05159931142650301,0.06352336553236405,-0.05547884312829743,-0.06614189485326903,-0.1487135313238093,0.1415478826678153,0.21781625360935186,-0.024270110565663923,0.0073685682333582865,-0.21532875745264263,0.3323080533998969,-0.12492397344679025,0.0471932826841667,0.1553014608795667,0.004108747453020932,-0.033479476319089964,-0.13982757150052733,0.0015914296952405566,-0.019123452361476462,0.0006519039684450136,-0.017955644763732674,-0.026119872946501883,-0.05866047842142571,0.13609434253642066,-0.03132062117273509,-0.20953800624936883,-0.10183657599326522,0.010657018092002864,0.10442528172071569,-0.29665514651613706,-0.010599048508554188,-0.08178863167986385,0.0747386713168709,-0.15426605932405313,-0.05392494424948457,0.036919622020190015,0.18061228468395207,-0.1497460798311476,-0.07818628783207374,0.3096614538623926,-0.15372532444836381,0.10308294059533847,-0.14389265351384256,-0.04454939613965205,0.05428141730997819,-0.03316521704825856,0.1424178678394964,-0.10940630017808647,-0.10904880265392478,-0.21331938552334861,0.06212986214847113,-0.05791160437122655,0.0007319452792682373,0.1997676103961555
-0.07220229585373476,-0.12641232609153882,-0.12049918153009712,0.02776475301337285,0.11326268647342205,0.004221919182329481,-0.08164480713569292,-0.008084533794046543,0.12459392383958437,0.18254871293586036,0.017751947511338104,0.0027926298457061757,-0.002934671817908409,-0.05690960139760108,0.062066234734202474,-0.02380407018937988,-0.016430027240375275,0.26655053547933794,-0.008342114665408846,0.05507235135423243,0.08157922040460572,0.026786779406357306,0.062382557940908294,-0.1381366180089141,-0.03924871400993196,-0.08295013599424648,-0.029843627735803284,0.21569545690276684,-0.13864932610983877,0.05580358550021083,-0.32237712623859216,-0.008083705873536712,0.11870333139576654,0.059695593320164636,0.08074421299667522,-0.009881974019031807,0.22971893222615203,-0.13311213252926285,0.20599201893201635,0.007242940382756234,0.08055778289317056,-0.032269442493092715,0.005282343814716505,-0.0016739182147239016,0.07760844695625319,0.006589848902742165,0.03845792395468652,-0.028854526566935428,-0.02535082023886226,-0.13711402933705152,-0.04757639387043144,0.011133744550619842,-0.11901433647357496,0.039057863116728875,0.0332391016728758,0.04571063386588881,-0.13281603561771585,-0.03639129362243283,0.07460774518779434,-0.18953411402854903,-0.043415951700081036,-0.2819771558315248,-0.06502396863874976,0.04996851548707428,-0.04603983018505623,0.1379343726099319,-0.06208022605750184,0.0615691059689109,0.04574987618311021,-0.17626857362399775,0.06698808408174506,-0.13573898718437494,-0.07806755516274072,0.13982565003753888,-0.025118291150687137,-0.010922759065745878,-0.12106104319351915,-0.012621990650629149,-0.026167675831742343,0.1971633768125765,0.03522991062351911,-0.05770640730908972,0.04905569664731274,-0.15928160703355135,0.2054959444628007,-0.05610378226028006,0.08131594323755335,-0.018538691314827514,-0.07661229628191298,0.019608926657804178,-0.113391099433033,0.0378205800894443,0.279936086220159,-0.10040939375135421,-0.02911872251142088,-0.025049662571870926,-0.21949198287759658,0.20579654377169526,0.051796049487507836,0.02432159430476359,-0.06012543028214688,0.0015597320252267778,0.08034617698347558,-0.006165808177817452,0.0907018836661336,-0.14649822116683614,-0.05333357663527623,-0.03725460103491725,-0.002930454467399405,-0.08451068300097683,0.18251141387224615,-0.09479772905776605,-0.08422180503455695,0.04644530106492349,-0.09197084694782345,0.010401211525252762,0.28634468671534563,-0.08582075412591775,-0.3776587850376146,-0.11926475623238052,-0.055966385534217726,0.15166360338733614,-0.05371516069248465,-0.1596474305713273,0.043238623811528404,0.02984627467285743,0.19178497167339317,0.12802491845294764
0.034979905533595416,-0.08903547035390247,-0.1715013467266124,0.03828648487764528,0.17225119283541962,-0.06894482004639756,0.014138779061914767,0.06608922404090666,0.056566169169902224,0.2580013169725695,-0.02807110011279253,-0.1815784054121379,0.010718388175822848,0.015628014155060856,-0.07690802628701285,-0.05193529548110164,-0.017581829357995026,0.0805904196741851,-0.0710266889239858,0.1838261137175706,0.05918994179140128,0.024131573657747457,0.06281370434092903,-0.11424341738718784,-0.00803545321091991,-0.1217601934028586,-0.14005421772988008,0.20224375338473569,0.052478001502039025,0.023311238843469046,-0.18329596590712616,-0.03451593790351884,0.19738804506110333,0.10365210672385329,0.04209113791729025,0.01741527335034444,-0.007985104969204132,-0.02370356155851261,0.06507418412165232,0.10539294055057122,0.06587381225699974,0.01058002051300303,0.03043277496587217,0.03434030166614625,0.06719944921528101,-0.06285257665732824,0.009096954106310952,0.026288483503184957,-0.022367958477436806,-0.07656164904547758,-0.05913680629349165,-0.006771894965612643,-0.035715356415993944,0.011379965255090486,-0.15319131367314587,0.038693602186082726,-0.1888146799937453,-0.1775257321365146,0.048483686635364974,-0.03581423663688844,-0.010385218871059003,-0.09248043295378333,-0.023340192205595685,-0.01728369768789967,-0.05053734604834698,0.13731246178072032,-0.0692472367117119,-0.008754120387185631,0.07360789039097929,0.024391762311588544,0.1464419859408508,-0.015188078954376391,0.09913218932562091,0.2056871789520104,0.009494159437336398,0.014337238382435417,0.12831582992562854,0.004064897266486644,0.048683340601376496,0.16875410799998286,-0.050051444732692706,-0.038284167407236946,-0.004981408252629206,-0.11032580049612391,0.155178439526265,-0.03713101042346195,0.06802142386343094,0.04608230532621918,-0.017626388017272055,-0.054968873738031714,0.22831471586177587,-0.07235894362918871,0.278223425069419,-0.05941854068846618,-0.07737143505278109,-0.0633919734194243,-0.07156117796619614,-0.008163998417506695,0.14645762933880985,-0.0973080360182254,-0.1721233669757694,0.11817546416085349,0.05239740267317845,-0.015574997574444893,-0.04239118199791204,-0.09893740300067938,-0.006906510085251856,0.016626947375723643,-0.07983038363399729,-0.006773015748516702,0.03578546826589136,-0.05995128788791545,0.03955753836021856,0.17748443684403348,-0.10466017284125963,0.06677207238423893,0.13637020071013461,-0.1549826316998587,-0.1492759706591241,-0.040753194473240315,-0.07835604199912197,-0.04798460449034424,-0.04236037759753767,-0.05231678353946525,0.08637799683950544,0.22335251274091406,-0.058491972677335934,0.18700618004969
0.1974452816894785,-0.09792720159706063,-0.19846354759491028,0.10878101593840292,0.029087613212825797,-0.0764336712498702,-0.036038807089288555,-0.07670866487512865,-0.1492522111211849,-0.05176708708962457,-0.17663978354728313,-0.053483217864812,-0.0623586609611482,0.04828720837772264,0.06731485630017925,-0.15636681352365656,-0.005667738872245353,0.07930997533283553,-0.043635558886040746,0.11350061833820148,-0.12370910747156752,0.14110648759366956,0.012911115931099008,-0.2935958218219253,0.002475511369151638,0.05306497596240098,-0.05586320554587621,-0.06748380248596227,-0.04899739343797311,-0.024517805868017675,0.08226471924841469,-0.11978335634776474,0.03168661336565852,0.3264256216531584,0.046054904989231,0.1643553760377683,-0.06517802454170174,0.055935612201968146,0.19016720995033043,0.18842269155958966,-0.02529679135374325,0.1044170929631642,-0.15590549327882022,-0.012730092620714605,0.05048175086063573,0.015646710296172414,0.010099652966624167,0.16339357229386836,-0.022505440969274267,0.04329891506783934,-0.07288095058805537,-0.052295425803508294,0.07564882502763165,-0.00969974101708358,-0.19157489689392826,-0.05700897134897494,-0.17828070041942962,-0.053268231030389364,0.01937696296326978,-0.267631521293837,-0.010204837753331992,0.1369842857912506,0.008362287599962387,-0.07247715681782134,0.005238293152313769,0.19866597755968388,0.009409974508910521,-0.10590644987979773,0.1519679388490443,-0.1454566247020355,0.1282821752557456,-0.02150006875063872,0.30581855346198716,0.10344833676179432,0.09643572117731687,0.004110151873737493,0.12052412764331882,0.04977808948545996,0.25170150128796276,-0.007748787599856319,-0.14182477674352803,-0.1718472308965337,-0.02667800168628754,-0.09714511665907316,0.09617658116958296,-0.07102694816654585,-0.06773845796686193,-0.04608561237114539,-0.018905605591637707,0.01727287793899903,0.2406761040717616,-0.04326770864710094,0.16520346261578497,-0.16860434427177362,-0.040584826086346185,-0.19101880754854533,-0.08178998428972542,-0.11538536192908391,0.03148701157203289,-0.04235361881505387,-0.15403209514334815,0.10368384680831505,0.14480915605627356,0.04644052198504458,0.0035721519324127186,-0.06762349510716419,0.03314352804327621,0.0026142550262806996,-0.09194878376326465,-0.03368718594977448,0.12093052562135526,-0.03331795083126756,0.06750706918218462,0.3447183165344529,-0.010790992474231372,-0.028082495379566252,0.026547377229580095,-0.13400001832593822,-0.09493426816000931,-0.04230876045267929,-0.03872614439248543,-0.001330951662923476,-0.05475441307941517,0.008160064752092638,0.11741974781516812,0.23286135338296854,-0.11387173061341256,0.21670308468596067
0.11795782336153542,-0.21775753456240066,-0.15200138212862338,0.05926434069488366,0.09799843504876118,0.06006691214210947,-0.051589477158857984,-0.10260319411502322,-0.13755422921865437,0.14377074288079747,-0.2217616878315737,0.16627323298731292,0.05735415834131602,0.030964346077886944,-0.03869347643501907,-0.12746199515439402,0.027334923231433664,0.1365781881561859,-0.008880987936414921,0.05220487564593536,-0.21325339656723993,0.11805829637287546,0.03831127677605065,-0.16929330797287298,-0.001088349988369634,0.013581302999952177,-0.043356104000167886,0.1068173518197296,-0.0040365648725645105,-0.10020110426309932,0.07414067623106099,-0.029517711714079985,0.11391979425855153,0.1572084270605311,0.08387618534476388,0.03749541474121495,-0.11416515811988007,0.05675018576207657,0.0398161567716272,0.07948162846329751,-0.04048464498377189,-0.020086330182288007,-0.08257603051718486,0.033169951548901566,-0.009365373556587054,-0.011225095036109868,-0.02308885346337575,0.04562027252033788,-0.028023631880046754,-0.07048025241502485,0.0037082603578690505,-0.05861688812158342,0.009215942726375067,0.05838927098182987,-0.016444877379366927,-0.05280161665635169,-0.16869968443570427,-0.00969056820228215,0.08430457866649581,-0.14363424150351495,-0.009716354886473983,0.025738650333026917,-0.01523658057643055,-0.12909217841372614,0.05543212204522905,0.24472472106752383,-0.09087923738233367,0.05140742790881005,0.16218427232175414,-0.06284603328924307,0.11405895089116914,-0.08340074136728245,0.19784414655415727,-0.005148281381185609,0.022811700245006027,0.04865837412555975,0.010027283811344016,0.045376922658120905,0.10456644142882851,0.03402181927169939,-0.05208432829932399,-0.16462231634350177,0.013969027025980997,-0.13484524256567015,0.13050474529431735,-0.023647242618226448,-0.11788214726507251,-0.005344487523546013,0.04201265218215482,-0.01671809087251109,-0.030521207573609096,-0.07099267014227144,0.17826553874809978,-0.06787827143479915,-0.05559032729946684,-0.0883964551776637,-0.056278051965498996,-0.13820173525399101,0.1949693832363546,-0.14873291929218155,-0.12883273788915692,0.16003336230889575,0.1109288720432918,-0.0968428340771723,-0.03211975726012843,-0.059020739838965754,-0.02090076533758243,0.017817239658356906,0.00908238363712899,-0.07178988402032677,-0.085066077867315,-0.08073518369109309,-0.022666126485636248,0.16686289114583097,-0.09880944204453604,-0.0574468448139731,0.1366920439045761,-0.10930976251840921,-0.0833578322374316,-0.027684390276372994,-0.024431223347974495,0.016166822776628703,-0.06699205010045832,-0.06487786075568319,0.18678219890314396,0.13591000310028747,-0.03923890525547815,0.10975558448699978
-0.007125347506180822,-0.022633383144668427,-0.07949860601180919,0.017351659116429843,-0.04092618759348005,-0.08459748848822247,-0.07030616912314336,-0.0016472489283753252,-0.04671893415922459,0.07083499771193612,0.09431965594611025,-0.04106009678138202,0.11792812806900667,0.03696914034074265,0.0498186084782394,-0.015619027785535653,0.04282448153734007,0.08119440211852387,0.009317883361580707,0.00818520331585787,0.006346728642024378,0.002427575443243383,-0.06971421671309783,-0.11081104946347191,0.035188410449266475,0.12696104252496895,-0.07825053591914549,0.07918334928640787,-0.16218870484257075,-0.017332699076301458,-0.09552996375119899,-0.09286615127237609,0.07104423310382016,0.0923601637430157,0.06783269191480788,-0.13222878291977488,0.06643146391097288,-0.09707353719287155,0.12335629648608791,-0.06347142118197834,-0.010343951842302085,-0.01642423624271673,0.08902144137395274,-0.01738893001944177,0.011358010581056075,0.034998475946318816,-0.005243623558361467,-0.12607570834811282,-0.0409795677117255,-0.1473021370421214,-0.036066269715086204,-0.08285209736441172,-0.0869861260679857,0.141357764375153,-0.07892213876799066,0.002216603769842135,-0.02343249906138146,-0.03998371005019163,0.1701951143320775,0.04051896403829508,-0.016128644956715857,-0.0271439184640098,0.054289253659502365,-0.06207515599848923,0.09480356710504989,0.051150039234115624,-0.0214267271311415,-0.007968743296738938,0.015801955834247268,-0.03629495740643611,0.08763068399253146,-0.20773087818448563,0.02939530362465808,0.04543020455141652,0.07097347656367732,-0.09648077685889239,-0.03621395977465062,-0.023401882731641576,0.11575182152114298,0.08531912685728503,-0.012638328101654476,-0.08131654382106995,0.03594883088631253,-0.1394487251217256,0.17203294412498227,0.01737815168490515,0.012732539633330094,-0.042899045105738144,-0.020603194917204925,-0.03377681115839084,0.04783211644811758,0.009387001431595696,0.029273029513767347,-0.0577290401499458,0.0072010160222177365,0.11596290472095735,-0.004569428382036229,0.054923615238038875,0.11529989325388688,0.030278317407342107,-0.008326563463618387,0.08589799469624156,0.013955542658785874,-0.0034611481536479527,0.08029910204748124,0.026774313767515504,0.07280234020633054,0.13432879113500082,-0.008155094344994408,0.03975047189456088,0.05200101159047202,0.026285013837138268,0.02700311366947557,-0.04951960028642908,0.056021310837008724,0.006129256726828958,-0.021180244533985287,-0.05782994962331301,-0.00657102049147772,-0.16611073184556502,-0.02508044867664988,0.10809126777498401,0.06644240277125645,0.05756738954035594,0.13855101191596694,0.0609222675733499,0.1718081851287453,0.06656170131681445
0.05841488616654841,0.03324774756749093,-0.012227413772022654,0.03548999699220808,-0.037676237323207205,-0.05764444366128936,-0.02094783699175589,0.04689894000581196,-0.03410852163476236,0.0041965555985501776,0.025111804146131508,-0.014425787612065755,0.026035455059643473,0.08968863421580764,0.008631912285621454,-0.004603714793493989,-0.015011080211500362,0.011367038612227614,-0.0071612447206215405,0.043558475669738375,0.04504670495253516,-0.07446115368287205,0.03407324624936152,-0.12092679553731629,0.05742439469267466,0.013470561945770338,-0.045885029309687145,-0.02474996864958677,-0.09934666373322808,-0.03392968001901032,-0.0058149046573630365,-0.03748301805955305,0.11356495767061098,-0.008358937906863147,0.06418032161738083,0.024250554149420796,0.06502147810421512,-0.040364689201533764,0.07251016402170578,-0.023438726728869593,-0.03438818875010782,-0.002533801377756063,0.029722954633829273,0.022077663904815654,0.036595473406628595,0.07134141993121988,-0.018542299245041874,-0.019238804651726702,-0.0480714620799263,-0.10244760247949895,-0.007344217485644103,-0.03270859136928575,0.05520198760027464,0.05502008349036607,-0.06551604677911549,0.0014950567366083193,0.018783950714574775,-0.0957472710672373,0.10856202650625571,0.07241248419318344,0.039384135625100784,-0.00757722931388509,0.07009202115230291,-0.024658969815355605,0.028569793373472437,-0.03712588758920984,0.015143563729014677,0.018316377347343298,0.023597860301038998,0.0005373618109269101,0.028472604502570987,-0.12926220344003114,-0.0028805443401965286,-0.048002039294905326,0.07382060700870009,-0.059779036461315355,-0.02375444040517936,0.03950827286814523,0.06642924306008877,0.04190506197951011,0.052357030645031305,-0.008317523163333323,0.04654745424532251,-0.07677661300311717,0.02982787467870983,-0.005144635068715225,-0.03396475550888194,-0.04219354821992072,0.009277501661468797,-0.030258411690399466,0.040984222341122034,0.02629080920563458,-0.08566254426170468,-0.05709466180221569,-0.038733014827512235,0.03463299220144323,-0.08267828383153247,-0.022134089889586844,0.05131737713416898,-0.05888861701429193,-0.04433473163740066,0.04060159340129246,0.03978720715842872,-0.013295266042379817,-0.0013134843788939487,0.014730167325867679,0.061613363003953286,0.09600889857879316,-0.059941351985352824,0.023216166832462835,-0.01014748767149361,0.015033773479392016,-0.03207862635157329,-0.03555541206259358,0.0008465209525549795,-0.020020014517540385,0.008158658262612502,-0.03302452430552872,-0.02301988279947674,-0.07974417053168326,0.004271880586744239,0.04886970365094624,0.0081339649810272,-0.0024564911904356307,0.05594030342222438,-0.030250860969254525,0.0853479845758355,0.06698014218200876
-0.006978744338831779,0.0921124074771373,-0.008254762785285067,-0.0019498787680618862,0.010386907560300074,-0.049094411732005176,0.04131934662044288,-0.005035633993130449,-0.018260009813734424,-0.012300203413059062,-0.01888454221553899,-0.052335512301044745,-6.510746106076167e-05,0.07429012564059874,-0.010957852852555766,-0.043755392387953645,0.02088707425507057,0.0005091994100888051,0.02723315987305481,0.0559280383118051,0.08186999804653874,-0.03006023065868082,-0.0023250861474243515,-0.009242875905495171,-0.027801988162407764,0.01165844095978215,-0.002640531156470451,-0.04614636015696496,-0.028477430415662235,-0.04286815819195654,0.008951585844637691,-0.037101427782529256,-0.02636159097753381,0.12730171604815219,0.06395814306340007,-0.10757890992920266,-0.0617786126739462,-0.08440607647502647,-0.01820882413746511,-0.02311514875670909,0.02831739827356946,0.02977407341770327,0.03196644301754243,-0.05427643282196785,0.05670362035226344,-0.047626275097463804,-0.021881494779603987,-0.019255478163823413,-0.023442025735689785,0.0011997057378232746,0.053668572813613105,-0.011543523927176518,0.03016741752477268,-0.022939086676446896,-0.05214008047318192,0.07948211533415735,-0.022850889656668382,-0.05762497019994398,0.06526091508135061,0.10593157144608527,-0.04583015236915631,0.02613668595832876,0.06716315249871042,-0.02227989285360045,0.021048718447888453,-0.10081396683257825,0.01632555042616029,0.014361865140341318,0.038761493260808084,-0.02829843837960102,0.019585870773471906,-0.11317200276074621,-0.03627304132269818,-0.0853244548261706,0.03553768683817401,-0.05450786185997362,0.01874349508478705,0.02941450410507809,-0.01399975721884576,0.03812106673373796,0.009829529402217084,0.020734140588424616,0.08433340282411565,0.024817915345802202,0.005947742550209259,-0.03330589313349388,0.027408670422458523,-0.04958373346980213,-0.04374634385571939,-0.004645522838614023,0.07537920763020768,0.007494843974612271,-0.1486244887295247,-0.03521649782940003,-0.031994584541734504,0.01586267340270286,0.028903667905043912,-0.008112699814595356,0.04352188242063521,0.04053465907931894,-0.0660104449582873,0.004298976541481183,0.10720399736785623,-0.005715042124316768,0.042427891936224496,0.05478008188131633,0.048104298529535384,0.058068169299007696,0.04680989815708213,-0.005592778010090112,0.009816641062080269,-0.029046859440927195,0.03865166272035918,0.027488151067731427,-0.011200684209526964,0.051820680613628566,-0.004962428393906661,-0.036463381055973285,0.06428397700922232,-0.04932861374474734,0.020803613287698083,0.04261766727111893,0.01151571614975617,0.10090325466680385,-0.052202026781955985,-0.06286749592341397,0.03531288579521273,0.0006381723629413158
-0.024274908524711914,0.04022638747008009,0.1027867531538528,0.0011671112585410423,-0.026908385780101657,-0.011014857122822493,0.03023707833516711,0.04944469484937822,-0.04627021318192736,0.013128100588523487,0.01429823335647782,-0.05527514661736436,0.003414421915054175,0.06281746292433754,0.06905563920517242,-0.045678993716563705,0.06012941657221427,-0.04744707362114232,-0.05102142398343883,-0.012001316026729535,-0.026657303949319217,-0.03321397825821418,-0.011295421854619287,0.006811439558960773,-0.0037503125576750624,-0.018849047016992075,-0.003165574527004756,-0.03176579010022149,-0.020936477506780148,0.003839606847580367,-0.00586356610586593,0.008995382112506039,0.03820567547788618,0.009241045802929183,0.013495062730786107,-0.018017111929209864,-0.042432134173219706,-0.04463297943331514,0.01631147832319137,0.03955012683827554,-0.00021211878172146,-0.03638444274061158,0.023584975290722985,0.02703119271048523,0.0006812162888697136,-0.07238215395602669,-0.014679967140208824,0.02219050420148564,-0.009768720255246317,0.020821100047998135,0.09724707709631561,-0.045179086566306696,-0.0006271582914443152,-0.01758318199894239,-0.058315295058083284,0.03742792028805724,0.017257909312395726,-0.006148114718373036,-0.0638960557939788,0.051742205190654485,0.002193175032330066,0.015879701485870267,0.00494470810295592,-0.019366538490873556,0.05539347186128049,0.018991075564970403,0.00706412840918111,0.021194103761974302,0.028856659666118903,-0.0021809240901872837,-0.02118532119967545,-0.006333607370989174,-0.0029436470301873957,-0.09996958704320545,0.003967822998268545,0.04790804885967654,-3.050932803978362e-07,0.06068555460791053,0.041604907561425944,-0.008349611078256325,-0.011003834734418136,0.053396944008828245,0.03652890784640331,-0.03532001127588338,0.03503079293415675,-0.05486370530134973,0.03196807424553281,-0.02331579813447647,0.003748953303926509,-0.018190040610953348,0.02628074915989351,-0.048029770541859286,-0.04643214254647592,0.053359565388752715,0.013724981744961551,-0.04188245448672717,0.031926230334080596,-0.01065981525325567,0.010736612000277113,0.10133319989095729,-0.00155440745021909,-0.04029894004392366,0.029449580222770354,0.08178776592542329,-0.03247242838399259,0.062227182537567816,0.08520588607732789,-0.005254781323821491,-0.00548782713978779,-0.02002719635316888,0.04788326731066048,0.04341757038397796,0.0042087151843972085,-0.03804797573256851,0.011832293138823873,0.013415879733541677,0.017254500253867423,-0.022471467831917613,0.024019764628918697,0.025914358557536595,-0.02114142491720781,0.006447985466027869,0.06873789609218255,0.022567280923369383,0.003985855866480156,-0.023099725983467344,-0.014345507164643495,-0.0012538948680960867
0.05556222199035977,0.016066870146673892,-0.04746158058644152,0.025880917661965146,-0.07427678514182057,-0.01055117051620047,0.029422523329176966,0.02512549654321193,0.0017832663073665985,0.05112221541530856,0.019618472443804234,-0.0033685103989084214,0.042386418284430724,-0.0405658797554632,0.012828252251452687,0.030769647373749653,-0.03333622854307775,-0.085249122241746,0.026597106770228616,0.009762949461479186,0.005044342371249023,0.017227535650237862,-0.03035811284184609,-0.03900641235271193,0.03067173150000826,-0.015113835016080237,-6.261854599777914e-05,0.0015940631167859949,-0.019866701977070623,0.06563391546335035,0.022507524047897496,0.03519929560027037,-0.02675901738553344,-0.002900843344342215,-0.043404896696714844,0.02708496678491832,-0.002984595699399906,0.006744210165450724,0.016399850848311838,-0.04118474437390128,-0.049185137064101665,0.005398928414619072,0.011628196862297628,-0.038494513416021135,0.0255189380161332,-0.02055554376057982,0.03313987545348355,0.02993752633382178,-0.013757826604280442,-0.00550452003076386,-0.05883083466561855,-0.02444865885632806,0.02938413714482133,-0.01725932518492044,0.01902892979990039,0.05754180946485715,-0.034129457256751934,-0.016166955689737854,0.005644311994063474,0.01403275041965959,0.03254508407451853,0.085062939900305,0.044920629730528405,-0.00421123098909361,0.00821301696793946,0.006609961682602748,0.042766847974620555,-0.02210544489583901,-0.010512235434946214,0.012807534095658294,0.015031677033460311,-0.03816548468957647,-0.04054651839683402,0.056707364444437657,0.004703982459779738,-0.03457274906571905,0.034047547051099594,0.034466148919489015,0.06578225799297364,0.026398767360982525,-0.016824367942727302,0.03546459911456788,-0.005061601196588375,-0.004847599150458587,-0.043854021837056424,-0.018300931114149536,0.06032952171704263,-0.03842327498440943,-0.00586944515686541,-0.0024465793798003218,-0.019670571931402692,-0.026487662346258954,-0.056025202612691644,0.009652247227859376,-0.03427075123173459,-0.002862116989779433,-0.002287521895059928,0.00637921425967915,-0.006917485891916098,-0.008487637864093813,-0.05892748836081748,-0.038257147074083994,0.01466326150134823,0.026244828362592496,0.02684755169342995,0.0026773610405005305,0.0074841817774055205,0.015241752441469057,0.01238675705323934,-2.895132808050452e-05,-0.06119601331905912,0.027568658466360352,-0.0418454560183362,0.028415639840643065,0.03873864098415016,-0.025609263684036196,0.01546255104108991,-0.05502659143291888,-0.01802866533693818,0.00940020736186199,-0.01658241220366306,-0.04080185311972258,-0.02774854536607779,-0.04468509188231661,0.03668372164577543,0.032271056247138774,-0.0058994838857580525,0.0359584603998222
-0.03376801162862407,0.011480514064213281,-0.04130469445961735,0.004265127758718157,0.04383010720821817,-0.07352706499928637,0.030834852365611443,0.002304088025629792,-0.015094960478842538,-0.05836377931313836,-0.07540157189231415,-0.0019924654499412844,-0.04610533997756475,0.03536669607469532,-0.032352347888059005,0.04616128613289896,-0.046070736491403974,0.03587087550185088,-0.023307137620842095,0.03125811600353861,0.007683953559847309,-0.0560197697728375,-0.0075091862821548725,0.05213537926226656,0.03399572512420817,-0.006986632362467385,0.08036430649857701,0.016058273956293414,-0.03348757914938742,6.692806708315855e-05,0.019252713035022705,0.040873958162890155,-0.010161923125043344,-0.0019002903735258433,0.05007444064723541,-0.04241559392673748,-0.011216648438924007,-0.055562375696820696,-0.009864985470556802,0.054511088648113715,0.005013661356809925,-0.07671394785565697,-0.006217608009528035,-0.055993848072167215,-0.0022282121960862816,0.031523524718804256,-0.0030107722496571015,-0.056506611640116715,0.03314096834169226,-0.025163229015936633,-0.011706041733744907,-0.009259018426043842,-0.047438927333110316,0.02376233084040318,-0.04510168889352518,0.0016241872341417943,-0.012469320382065933,0.03654451474174307,-0.06949552038905647,-0.032490474687447535,0.015138611728929462,0.005709875834775515,0.0014045230941140715,0.043521894053336944,0.0035006392260187686,-0.010035853943423639,-0.022745498121411186,-0.014837904380974338,-0.012564176117582574,0.04110127307413231,0.07928225896967342,0.022895095547528534,-0.008170974847067164,-0.010784962311391207,-0.04457014751356652,0.043118021434535005,-0.017069112396812417,0.025478720523905797,0.0071470439543207896,-0.007052322239690894,0.05559762912700975,-0.06131333686395432,0.0006021310803558306,-0.03770953946204589,0.028719552809970565,-0.029240372509360193,-0.03637011700717463,-0.05516963911937094,-0.01964856162868425,-0.04612721341151781,-0.06465805368311929,-0.0074486333605809085,0.02004005876944574,0.028109083771854948,0.03352046889722509,-0.05597517920418705,-0.006654082521503814,0.03343451818806462,0.02499594360046213,0.04620993541546689,-0.02410051423486499,-0.04440523685174758,0.016709332366809347,0.030458690339940465,-0.008284421150884158,-0.03953486877109623,0.04346309722987659,0.021351114549035564,-0.01861340363588014,0.013676632884747316,-0.05296289882462404,0.032481987024285404,-0.0872882556461766,-0.000719967904175193,0.041303105723961585,-0.0011434417626568967,-0.013577553716345628,0.03269320863919812,0.04192724878102412,0.05226918058355837,-0.04761210609297233,-0.011777381522179992,0.0882013709274734,-0.007614236249760717,-0.007774352696679543,-0.0533629616788513,0.06138648471314525,-0.021395031413591187
0.0029215278842772965,-0.06713772957522876,0.06186979238536663,-0.022878667082635466,0.014320161532723462,0.027530882636680545,0.022102983246226757,-0.032220924952172894,-0.02098176903980788,-0.020866011371781144,-0.023207403603364114,0.02667663525722453,0.005486627688590397,0.025388387016715554,-0.015521959633383218,0.03140423134659827,0.00041728134167410343,-0.05521971127162572,-0.012684716292374278,-0.009171912855972155,-0.04969410471734947,-0.026752252146058263,-0.013975192444092363,0.004667045266421042,-0.025893336948202277,-0.03423692265957191,0.01086112817815248,0.01631745717813025,-0.026059349324390583,-0.01752531953620805,-0.005820664650246997,-0.0014008958624697188,-0.029634415868956175,0.026827306893315896,-0.0016923411200793989,-0.0240880607317705,0.07392031294808674,-0.02022544472063252,0.04885213987826648,-0.0021105600669731254,0.028431289911658456,0.06226351262867289,0.013539789288093653,-0.017463007477559814,0.04151733448977404,-0.0023118041490847873,-0.0030131483027744797,0.033225413273718474,-0.03276619571354332,-0.010641188149906514,0.00704370554217205,0.0003424162446816043,0.044234566550793865,0.02469285170275368,0.013470116254763348,0.004891123094395969,-0.05469780512597302,-0.06532185774614628,-0.020298724516670252,0.0526108249101881,0.01533629306562338,0.0013050599629482714,0.009627852994201274,0.018162395239570396,0.010660851122787533,-0.03959860498937978,0.025653635655276032,-0.01185231796261746,-0.03188657082062123,-0.07299712433978195,0.008145946629220547,0.048883821494100324,-0.02058795048302769,-0.028438862308195628,0.012530251538804646,-0.01728724871388249,-0.05126920471667408,0.050974819345767454,0.010318930427295368,0.02617499697305836,0.0037447637910824325,0.004658291383537656,-0.04277942752820015,-0.000699431474116609,0.0007494157212248075,0.04116624893049653,-0.061683213459797534,-0.009901068429003864,-0.017762073405759575,0.010529138249960502,0.04615197665371862,0.001318664011097058,0.06064718772450532,0.042519924515155155,0.004357697460301274,-0.01033400150529133,0.019734193853263936,0.0036826846543314756,-0.055744316641199165,-0.01569591441435889,-0.00079751017582487,-0.03747579060430731,0.023028080946822436,-0.058844929364097985,-0.0006161688010339777,0.02869348501147144,-0.004560048614874204,0.018853271993733243,0.006325516013355244,0.033027915726812906,-0.004348144011903232,-0.03872178502331671,-0.011706498341854412,0.002242944167876091,0.07346347520698494,-0.019758939306602778,-0.00738140251000793,-0.04677153883286752,-0.033028288401819546,-0.016692553350815407,-0.02336515691490523,0.05594144824790994,-0.00150231158909108,0.0005945823437485593,0.04639170268718668,-0.08090760339674076,-0.048229390619125394,0.05119609420532949
0.0015387144824646989,-0.03349090112500864,0.003809268552805923,-0.027202530009430393,0.04793501465887465,-0.045031585436021336,0.021252394578457488,0.004228054054850709,-0.015839573817239785,0.010058633776893483,0.04031695079510861,0.0018903235211094355,0.027615362032730746,0.01922179232878942,0.005180479351548541,0.01660330600858392,0.018557273507520105,-0.05361463361587927,0.021999302673245385,0.026714028571768227,0.017034444125998794,-0.07940410213802042,0.004701217049958076,0.041668471023546226,-0.02424920693569801,-0.009147525520109431,-0.04260623620347397,-0.002062799810681072,0.054230195591618346,-0.014514101747655841,-0.029228477030919853,0.03167777626120773,0.016348401340247235,-0.008255367401883634,-0.00843038303482777,0.07322940668209768,0.048462454075499414,0.02203727662858748,0.005719243232617133,0.0271028508748362,0.04529476142526061,-0.0059217553840334985,0.009342538669314645,0.07631328410090227,-0.025786193839916267,0.01536720926187131,0.01671384255099486,0.02611744712497107,0.03650132037349781,0.045052036755998885,0.014239087906575134,0.007689582986847639,-0.004595196985686894,-0.08882234590455458,-0.016729168195674406,0.0004250580638068183,0.050608545037971464,-0.021490712863329896,0.006041400121188851,-0.0011343408721185505,0.011582269389786171,0.013573969487817335,-0.027635457242337545,-0.008044298841731592,-0.04767358051161615,-0.022237441518586695,0.004411800304673111,-0.00227724144659313,-0.017138917389873,-0.011048893604066747,0.04773772025567314,-0.01477039547396283,0.0005994813514342207,0.021546950197201823,-0.0515828024546826,-0.02410372249273501,0.03358710522698543,0.03641837039438554,-0.002816315801898791,0.0502067833266804,-0.0407352580679857,0.011934273292784204,-0.01565508880606346,0.04543024539406879,0.020613578327704076,0.01249097415974025,-0.060095901591091995,0.01060723110268047,0.0122961261326847,0.01192671213671049,0.03779417950689757,-0.05130938205454636,0.044653783244652655,0.02634684211707962,0.027502271197272492,-0.08232657314539404,-0.03626414707455989,0.04842052815559546,0.03158182792688251,-0.030822977704248182,-0.027674376305172898,-0.04703078771050336,-0.04320218065950203,0.005397231082812777,0.0414000842305177,-0.031380931817721565,0.007505010244873409,-0.001226174480594136,-0.00416393039416594,-0.007343017185336897,0.012350063261267693,0.005127834320727494,0.02256722839109446,0.03213674903186765,-0.06346317229049521,0.062303869539930855,-0.019108623233451246,-0.031852581503471075,0.023160053304363847,0.005287133802114444,-0.0025574779843865894,-0.058592468442055956,-0.01288271589400528,-0.08279480929669969,0.009914313199693646,-0.040375280621185346,-0.029613807289853446,0.09417791649247212
0.03021429300259272,0.024818928970419075,-0.09156926481280103,0.02082867354900593,0.020015083054232344,-0.07494379721898058,-0.023541774872752386,0.04806349587169893,-0.05675582819418011,0.04336678427878703,0.03992357495275834,0.06798315941251297,-0.00033817478289351895,-0.01722626177359694,-0.028817446296886175,-0.045061027131746256,-0.006023726134044571,0.04926438470008435,-0.004470991867028336,0.09566189286925478,-0.027249132455953992,0.01938870118420359,0.000819102978516028,0.020990940600359772,0.011091360136716672,0.003000433144645698,0.054331771303480096,-0.05552999817854874,-0.049027122819378995,0.02152690118423467,-0.043000308657731905,0.0014355902127712974,0.0037380789716634803,-0.034603152684963376,-0.012474935771616938,0.013056931769164658,0.031323002688903014,-0.03085357634387168,-0.04318883730850561,-0.015266416157284553,0.034192941202441506,-0.021051170764917262,0.06572241145335919,0.02330446831396256,-0.0054951062452661655,-0.06854141309364069,-0.07715391901879985,0.006419132685866407,0.049439370250803645,0.007189089549536044,0.01791108434484375,-0.003954684150526809,-0.063530728285213,0.028670306845124345,-0.03891010831843539,0.007910758522601175,0.005008248685702735,0.006592743282134657,-0.04149507394402185,-0.0015058009602166552,-0.011547261715032968,-0.029936046463927765,-0.007043159092471691,-0.05959557596253407,-0.0011484349177738277,-0.015146783803533863,-0.00627154629168601,-0.01598100324246932,0.0464930909142271,-0.03550797296714811,0.05291666953917868,-0.002428851151862487,0.03270532232154369,-0.02102381795071272,-0.0008535077464830137,0.013555869915479647,-0.02162658680669619,0.017415267672730352,0.019959441684255882,0.02333564366585935,-0.03946411029751614,-0.012044835927409183,-0.029912010331030112,-0.038195862074387986,0.030680064512751543,-0.015474079782169428,-0.033802325293130535,0.003975537444048243,-0.0032218718536393535,0.0534731850874449,0.026557034693520852,-0.029752707697655464,-0.02190820140741804,0.033904449665010675,-0.040140678247778915,0.04195700393290452,-0.010842980113469696,-0.00446245140361916,0.0318586578431793,-0.0232351989134521,0.009882664670303545,0.000756905101692404,-0.03951174094854802,0.005778290067254771,0.03491445304134218,-0.02039855390632882,-0.005800570254631052,-0.01139504285449828,0.0249434367940837,-0.037925851397979264,0.06606150380962926,0.03950064346005299,-0.013639510359644422,0.025912016756613112,0.03938322731675462,0.03962719386465301,-0.00013696744710055725,0.021451817893662038,0.031180550657468206,-0.029578583786523782,0.00932575418141914,-0.019966621879042232,0.04203410003032597,-0.013809142773480306,-0.04303976023994411,0.018657689664908494,0.02025944223652026,0.0056842212578962865
-0.0039027596880570454,0.03266123597067185,0.020835973048683225,-0.046282125752877795,-0.03298641087114233,-0.025120077684976472,-0.008290921202801437,0.004427719772767986,0.04948173353193231,-0.04375992232154181,0.05988574446128118,0.02439429265717016,0.0035125001733889026,0.03038838639042395,-0.024546963243753956,0.05552226085649267,0.06138367762348895,-0.017148330760734045,-0.046588141233009854,0.019384763010929024,0.043133433210148724,-0.015432768623140542,0.02407386880309696,-0.07445815668425046,-0.02701704272526001,0.013673046928231892,0.018000768339251506,0.011884413906757502,-0.04412644223910677,0.0034053385318312396,-0.050417135242874576,-0.07617746611349828,-0.038610669267383456,-0.030566965775965935,-0.01791241767408563,-0.050025551774280974,0.007693114148838517,-0.016045077734899587,-0.018242200409078858,-0.021433594883355375,-0.013134818607056441,-0.010938574674084543,-0.001854076197002256,0.04135661842509533,0.031096018830240598,-0.020197511138433516,0.05169530450981958,-0.05699693943931048,-0.032327872392844285,-0.019917295471714006,0.029090020741738908,-0.0016792233361641773,-0.015106025407080548,-0.04281689962417849,-0.0020818184162984966,-0.02574159171637838,-0.05720697231106989,-0.01835293432465593,0.02389991340840701,0.0013635459486176654,-0.02112963265455536,-0.013800446101883895,-0.0034724930474175496,-0.03391137038947031,0.0032126873951816774,0.004101036835095862,-0.007497085551305615,-0.005157796253652425,-0.018823952879601844,-0.03952550051067663,-0.010538978085526141,-0.03982672772104754,-0.0011028815665453527,0.007226763190302646,0.012356368035671009,-0.03171405284463213,-0.040153584466524284,0.03220473231374792,-0.021539148537084895,0.02531785091670981,0.02871430941672707,0.032653844160553475,-0.02324898852908331,-0.017563374805418683,0.03197573838586965,0.01927779931189751,0.009634390328390906,-0.03659095346790368,-0.01579904125936407,0.03735494281656539,-0.042989918826623924,0.02226989949286901,0.012631157965453978,-0.04154960805046328,0.0356463707834644,-0.02645560378933922,0.03697713920550489,-0.0165367424705727,0.019587312267568293,-0.06425510024323702,-0.024045737738624593,-0.0007559974066804585,-0.002243852791015762,0.07265506945912704,0.0159730453923682,0.008664488647350116,0.021852429154538066,0.015065515435663576,-0.01895023086556151,-0.0023789718360568354,0.0010838542156766011,0.012538711382518629,-0.04275996792810032,-0.01311227063054851,-0.013876990629128292,0.02127897667955435,0.03558663318568104,0.02137339586986325,0.005713417830270894,0.05196440623595663,-0.033256542197672774,0.04985175802900037,0.02428096323502556,-0.021103365605605776,-0.03421939457221297,-0.03419239170026472,0.04097416395224981,0.008415855473204182
-0.036657241442956845,0.12865536930986501,0.03655315896550582,-0.05598917790571625,-0.013191996631136179,-0.029087054265009803,0.027509699999710008,0.046661248866223026,-0.0024021469055153432,-0.01750202169989757,-0.01548155726312919,-0.11064544805842948,0.0006859718751470575,0.002510196652643527,0.022186297160552322,0.04748305158016964,-0.02182478946163687,-0.011179081799582562,0.02016047480409942,0.0428675363325712,0.03376696971251511,0.0032828941524433125,-0.009301123199038829,-0.05986179544030844,0.037379593023397134,0.026303147071273462,-0.01036330143678298,0.018754404389450356,-0.10571939927869568,0.02354080731330685,-0.04022656824795386,-0.07170120841855154,0.002325178980501407,-0.010159562882193792,-0.05435115952084004,0.07260341770936798,0.0367054467203574,-0.044236635154890167,0.025272516896169425,0.004497817692691151,-0.028653379238573477,0.0006423089792314187,-0.00643485131184293,0.022465182494352975,-0.019799999321166724,-0.03266535642444777,0.04471245704562088,0.031027793538401616,0.004192095134538353,-0.005905613874609344,0.008019458334023781,-0.010471436788390262,0.022320764130630805,0.04572757749741291,-0.04667044755584341,-0.030410376802092316,-0.008598040432004088,0.04696851659884714,0.023477702082408455,-0.010254080574502023,-0.02554491199621763,0.051236117115296624,0.08532912246659335,0.0220745676276404,0.06192575261238547,0.015034123117923664,0.00012131105226300387,-0.04326058431068951,-0.02065246047235592,-0.014668142034523818,0.006891569207712537,-0.09289836220047502,0.04579420337908312,0.007978699170433376,0.0537838032794865,-0.02245916255723056,-0.013850996617533572,0.08372418499783024,0.003892409999591566,-0.00027939355817898384,0.009469786644120782,-0.11221278620180755,-0.000774567170884051,-0.014068665668008162,0.039678218594084436,-0.024701179248619077,0.04474057352159313,0.03943258064119372,-0.005098595914545761,0.031811468484146115,0.03079417717386403,-0.016137350645402712,-0.0874196452695761,0.027917229899276183,-0.00866661278577376,0.037584277402423025,0.07755065634335082,0.01599253218245753,0.003509493054553009,0.05880252391801476,0.006954988486285111,-0.006149783797954553,0.0009995651757042324,0.05525650834920505,0.07880412936051975,0.06374957296098892,0.03197181127613706,-0.036118101198727146,0.025652066948148037,0.0203851136244585,-0.010418340288651354,-0.069570845039227,0.015775076560328106,0.002614023605984674,0.0014027573036277565,-0.0037812188874288334,-0.06497467986500527,-0.040480195294927725,0.032771571869653515,-0.023211854306182594,-0.043153720058175464,-0.05208064441453739,-0.04097211932311083,0.1161715686975655,0.04883252049389028,-0.01497712491471358,-0.008670806010568717,0.011382650201056704
0.015044061291524854,0.1664811121581035,0.032614076564494845,0.056348625466443064,-0.06446176234509852,0.025577510999789603,-0.005349149027846032,0.10193315251599001,-0.006617127220900752,-0.013404465102435094,-0.031095031787680718,-0.20337339135999016,-0.00825027635911298,-0.03836640766249686,0.023398556063264974,-0.07151853160674371,-0.027204397160722166,-0.049170028042583684,-0.03471814166818094,0.05177408746517615,0.1405888178370351,-0.14308343942753007,-0.05734289292133383,-0.060691419698865795,-0.020710523446813314,0.03090971013709259,-0.033960991886628454,-0.07992248556674715,-0.1190963440202751,-0.02965415620051641,0.03958815802922171,-0.029613944421798197,-0.020335339318131283,-0.02954119558617282,0.006436282943525264,0.024141423228224566,0.11914726372119869,-0.059359307198289746,0.0522998417236596,-0.0798526975439042,-0.038116047826875145,-0.02845033215982663,0.04552693337936737,0.06148136376718544,0.021242684685380108,-0.03225699272596284,0.04337261958589036,-0.0771138912650706,-0.02883252293409697,-0.032383808509627555,-0.002449734758209487,-0.09989316134899137,0.05074992264122861,0.028694818202390417,-0.10879860236251704,0.04694035272129265,-0.08954026808531347,-0.04339277803715059,-0.04978325752438003,0.07483351029600656,0.020607237077101104,0.008569188404780654,0.01615460945175033,-0.032533575725796224,0.07981670229943982,-0.16180495370280895,0.1005241917327858,0.00810080746830968,-0.07636023122469336,-0.018380007603418267,0.013924896246090487,-0.17712823230057584,-0.032432783163447255,-0.06891944367121874,0.11431698412910463,-0.00019272694724707746,0.007839396597772995,-0.049304498616788595,0.01848024680163247,0.013545080207759363,0.024123886069601013,0.0029437588391782394,0.05013206721465635,0.02657902222115442,0.0247107981961594,-0.030569438715116522,0.042460783928507474,-0.0507460787143025,0.02369970026113638,-0.0415131357538125,0.10876136009137927,-0.008521091288804593,-0.16758933419731675,0.044931685907364315,0.04164499379957506,0.0657699536504023,0.06860531527188872,-0.01615245831042231,0.004046036362090842,0.09264343792256016,-0.013325911378923888,-0.06693327464319672,0.022225104302643236,0.07239748333062261,0.08287790356143052,-0.016710534802526607,0.08730758677656054,0.06445917188015378,-0.0018898225359475589,-0.07934841200249351,0.02376939158221868,0.047755686161822394,0.05543680119614438,-0.016067537318200494,0.15910983210652818,0.015222738282219126,-0.06023714515028913,-0.04453887876246879,0.0449697420477577,-0.08287646554958375,-0.02979201551230759,0.07859340020408805,0.027884191395110346,0.15000665379195857,0.037669384619582344,-0.05835437485647005,0.09038491622373597,-0.0520325026661888
0.03632735091949046,0.1552358581142352,-0.023672939466714088,0.08168960963380029,0.021255203912279332,-0.04490919218919339,-0.09001193139000314,-0.02023709677748258,-0.0024558154497159226,-0.08828402427049778,0.11006619602374097,-0.12562116158890899,-0.036474481258014266,0.03284637067994353,-0.020157337635718805,-0.012235701431965978,-0.024089049989649735,-0.0585269817759083,0.050148214722426435,-0.017063644912051486,0.04521174297171498,-0.05643331092410671,-0.11360347396474,-0.032086080527891976,-0.06395975815996958,0.16236940706536113,0.009180792521903645,-0.056051041919364976,-0.1204069418617922,-0.023295217448318584,0.022736565973228304,-0.07195461478489644,-0.06296387891474364,0.0340049537600686,-0.008385449433112762,-0.00023116785516341353,0.10990970182888601,-0.016049979303669432,0.08859300244462842,-0.0432305436583883,-0.053089536045439215,-0.03341128674979273,0.04199367381690723,-0.019418527538345515,0.05448412635802495,0.0764885300776009,0.03868577213706321,-0.023659629448637805,-0.04789731651886968,-0.054578722875550816,-0.030485941421664862,-0.013578932131883709,-0.000558791371806187,0.017901582475858685,-0.14004845587490994,0.004185887375784845,0.04865161487475255,-0.02615099432209702,-0.001413686526654574,-0.10449389602270512,0.0006555530319755999,0.10985608269114601,0.09686116860481746,-0.08765931473081097,0.026265072155989024,-0.18464460252582124,0.026796174156595444,-0.03057380673219353,-0.07417723269552283,-0.013499570107669898,0.038298323067711505,-0.24740892254290106,-0.07692326597178016,-0.006140824165747775,0.1367642770330685,-0.09727279988609798,0.033444372517098774,0.0004223706653082868,0.15443798858868235,-0.030138471016205627,0.02973173155040341,0.041408871759314826,0.07387787057455872,-0.021920812986523857,0.03890658179288293,-0.06890161690104245,0.014066226476607638,0.013481001721499526,-0.04288028602081358,0.04981562191842868,0.08796315550396078,0.046650019016979585,-0.01766186004410029,-0.04339769926693815,-0.022892767243254508,0.14447933196137572,0.008118635865034144,-0.026243695228681713,0.022977534224482052,0.0999740907436932,-0.03480698343757646,-0.059208663139721784,0.04393442417656696,-0.030123402441001403,0.11741964073494565,-0.00896171757588001,0.09059371746198025,0.0874937265290154,-0.07448768229989391,0.012958990045157798,0.02796159159394767,0.037084459300081855,-0.016574859919849406,-0.057525864939199235,0.1487270886439862,-0.0626374374147406,0.028536832248650473,-0.10387552587133805,0.018991815046921892,-0.12169969348905622,-0.07116432249631441,0.055744900552245756,0.00015907624657143262,0.053655650134150655,0.07108474219679839,0.030016639234675194,0.14347321987183406,-0.013502458348380975
0.05529924868150086,0.19082263868810795,-0.038064758352553435,0.08930016547187711,-0.0762188218888667,0.07258835968541336,0.009045248580152657,-0.056645132035654626,0.019082502155580716,-0.06173302556640201,0.09317537847424044,-0.38123582776384923,-0.012314917941200496,0.017416017428765578,0.23653004166067063,-0.06654112636573892,-0.06830284592299861,-0.06154406918265665,0.054321421849054634,-0.024541543650947333,0.15637511824349815,-0.13231337774018195,-0.06593363970545432,-0.11787269776955006,-0.025568818497393057,0.16296501709643993,-0.04833902495802584,-0.019332465186851087,-0.29099242958361726,-0.0709706893610062,0.17891640450305415,-0.1685004302499146,0.05558026242525741,0.05116824924813414,-0.014607034926923747,-0.04677381127211542,0.16535402313303113,-0.01446903653793544,0.1408657411793353,-0.1836783404906577,-0.06407719847541993,-0.005750893455409969,0.07278492661969665,-0.015658977642011736,0.06932694112209765,0.00748745896402995,0.009601980245172186,-0.09933370465515959,-0.003385233939759433,-0.08958431634515636,-0.06272009224776184,-0.07177466184319338,-0.08767970517300085,0.07510259889619912,-0.12352251495107065,0.026141771383567,-0.02966676606175193,-0.09641327284291791,0.06165154955880791,0.20280081431461294,0.01374631173218112,0.05822931651492091,0.12381488198853288,-0.050187146184823214,0.19879090885332198,-0.1804611366518558,-0.047838844266275576,-0.11078723102413789,-0.07271027833710178,-0.12724910566290665,0.10499810665409172,-0.39244976326660025,-0.045294908423504775,-0.02708138631735994,0.17622560670197163,-0.03756419887494784,-0.08366029486723156,0.007663593688948707,0.14293864711249507,0.07299519692610641,-0.05750795742884962,0.04778111689833222,-0.017379050432086735,-0.03671667608302346,0.11120477023216482,-0.019375007015676775,0.04027618673441422,0.009905858629667698,-0.030801956393378384,-0.05529071854404898,0.1012796465621651,-0.0602330659658784,0.03247556399655136,-0.03913632767648777,0.01660941724362798,0.22816866104305897,-0.02467783257447532,0.01895202482268065,0.12471022661701552,0.07289568373893991,-0.0030992463015310904,-0.004755699705436091,-0.01765606010656692,0.010064222199195701,0.11080988086857076,0.04109425030471052,0.011973530562209728,0.16074510218679836,-0.004878845723973283,0.07345110049958328,-0.0281100348883593,0.07157733100847871,-0.02119056261590137,-0.0437971061689547,0.25772615138569804,0.024354354446627452,-0.11886691720529188,-0.0890005906614013,-0.0281672303800895,-0.12581681677969342,-0.06706371842171727,0.16459163563268853,-0.04100912681968616,0.38270245490120286,0.20093081621101,0.036971238702753144,0.1228443645635523,-0.04145432653086125
-0.038002104843838334,-0.17544984291034268,-0.3008641654372829,0.22913592633318022,0.0318871130415324,0.09302338542281807,0.0261029443891854,0.023270076804819094,-0.07589325915213967,0.06981870168272039,-0.1980628782059136,-0.2683733560812462,-0.03709198383690905,-0.09209925822250237,0.12322589004353705,-0.03604935026911086,0.02487078554529639,-0.03324782089381052,0.06617739623057137,0.021354711305800755,0.03158026715404456,-0.02845457190350315,-0.011705356732554103,-0.11042887038200569,-0.10048496429497293,0.010647822700759372,0.003805112156474503,-0.10696692476810615,-0.07426126040248397,-0.009118745029352907,0.1628719346527899,-0.08874861446886202,-0.00751262120884096,0.1145518388745726,-0.06614134669661863,0.02026300507466316,-0.03832164499104903,0.021961075749176412,-0.13014649438523546,-0.0686535803585119,0.02400750317412005,0.0017475542522166548,-0.01394445200896604,0.04571115456937855,0.039183801560404234,0.07019514799879913,-0.013186735834217275,0.08788686991267025,-0.062039092284835694,0.027149173858002758,-0.08491910427270495,-0.13518038794610113,0.0022604476723425385,-0.03174704381267677,-0.09322600552292559,0.07453986945293813,-0.09413474282612208,0.02569542371394731,-0.03554982704079828,-0.11984764901757457,-0.050044114015053806,0.03248489438423684,-0.03161242952907583,-0.08376583134083908,0.1390128980472287,-0.04514167554467879,-0.04341570450670586,-0.001935110063607672,0.17176455455848674,-0.03129471578077255,-0.009699495610516175,-0.1147614656908859,-0.07406265761776815,-0.028755305739872103,0.19352412239420957,0.2044674450075256,-0.07490926611181899,0.04600591422260537,0.014548012668104966,-0.08325734431050431,-0.08866964619405071,-0.013950249231293203,0.07887126314376326,-0.07741504956264515,0.041437838024607265,-0.015363008859511642,0.08136391039321673,0.03479676936455213,0.07262580770884369,0.032906331266000746,0.316800296664134,0.01872311098310984,0.3503994963890785,0.07306381329662362,-0.04427177020318528,-0.013268148983090767,0.12484560579949389,-0.1165550117255691,-0.03224857461716946,-0.056571149418547025,-0.0003039757598019376,0.1192830741156132,0.027796676845040825,-0.04931319011953123,-0.0135245441927065,-0.10161208834556705,-0.09570538686850953,-0.09286441987534139,-0.04328925647743618,-0.026684365898781155,-0.025951197891109133,-0.042926120388970895,-0.04698900047334812,0.22400308927563412,0.13022777587806902,-0.03958039152549479,0.09417207253906335,-0.1686096197808891,-0.19117313028599311,-0.08876842789038147,0.04401267767441519,-0.08694327088518104,0.06187327769704685,0.1929326741942152,0.1267698052203932,0.12712947257898746,-0.13684314150070226,-0.028835029865573597
-0.11354931163398103,-0.31706879959514267,-0.2147440252293925,0.25250560705807956,0.05624738801771727,-0.016454325679311627,0.11208632501222143,-0.04470033246487951,0.12778103450988415,0.1553789780727768,-0.38069231120094155,-0.42408654278443025,-0.05967387763509451,-0.26592861077986046,0.11043621098538521,-0.009410384994670536,-0.07756452709834769,-0.11646450624160332,0.029210485830390223,0.006540244701265606,0.1720897730256499,-0.13399525115282895,-0.0003250304336184296,-0.03037886243579143,0.011360184314106766,-0.0226055393228357,0.01780515084939943,0.022754500088997424,-0.10393358182931171,-0.009229362323021347,0.044766254582779386,-0.17110413627019755,0.058805345710339345,-0.06868228025834273,-0.15191398827750066,-0.035189214986813926,0.010031823254318365,-0.09711717545896192,0.0030269804581053187,-0.12491239953996915,0.08092182242438024,-0.0753073329338416,0.03282353039408483,0.03629871587457465,0.03631991137966022,0.016845769952253786,0.04706445800082572,-0.019792049400897363,-0.02842905838334222,0.004764241981022839,-0.05975212075689091,-0.09049546473959723,-0.04185892123505991,0.018611501945372894,-0.07961637560586414,0.1117925982026524,-0.22138028694048026,0.003082524953101357,-0.21722175383291503,-0.08536904180138184,-0.10917085600840852,-0.11321998452117456,-0.08682091962526166,0.05308488368694066,0.060439908874180014,-0.06542736008101574,-0.02877099838793807,0.0905242317241052,0.1189140272525962,0.02445913565658039,-0.05854278134880232,-0.08307954688091646,0.0621247344150883,-0.09969107244998077,0.226198398335591,0.3262510737804262,0.02797531626544555,-0.045845598432701654,0.03470998721780867,0.003664137231702329,0.0707629459766108,0.06641120196438648,0.08506952079428932,0.03168727329447423,0.007820663289536893,-0.049481200157994974,0.2187920740193569,-0.032041116419967264,0.06556458435731181,-0.031321246834570916,0.3859037263109744,0.05083981532607209,0.4812139556124814,0.12982341727543587,-0.11701682449370772,0.14441287490039287,0.004040457641613421,-0.15074144852987953,0.02687854034308166,0.029709976875426113,-0.1369157420161458,-0.009609604672608029,0.055626103781036135,-0.044773432635637975,0.0645424278086963,-0.037039508154986626,-0.19671904090839432,-0.20408718078973515,-0.12339503198482968,-0.014813990448629402,0.05350244016978875,-0.014333092794280659,-0.019164808685133424,0.29058456813141814,0.03350416370543179,0.14745038255463783,0.2895774248727378,-0.2090740279334435,-0.283667624817023,-0.05869207573740291,0.03677537006515628,-0.042584806390306505,-0.05100045473782625,0.1540112844814973,-0.019912897785335424,0.20582828479285872,0.11916131336302067,-0.06120592787657091
